16689 100
lengan 0.16351531 -0.15064135 -0.26295593 0.6304382 0.1510865 -0.48427066 -0.37878194 -0.3031833 0.0750911 -0.65879893 0.2566549 -0.01094752 0.2690787 -0.020182574 0.121644594 0.34379235 0.44603524 -0.6177363 0.23475733 -0.3117665 0.4133884 -0.13924207 -0.3471295 -0.4241674 0.3094293 -0.3018226 0.41720685 -0.19217789 0.17960533 -0.0105381105 0.30338097 -0.22066098 -0.50616837 -0.13695768 0.2165654 -0.26475662 0.04335466 0.20810127 -0.36519027 0.4329973 -0.5851854 0.22806899 -0.23423623 -0.0013292505 0.30067533 -0.5943905 -0.3944251 0.09472229 -0.37675175 -0.14088853 0.333433 0.09236446 0.14613093 -0.041870058 0.45950228 -0.1743122 0.12871563 -0.56918186 -0.026204593 0.39309078 -0.45353913 0.023338145 0.004372311 -0.7879269 -0.045768585 -0.102983855 -0.15522936 -0.6283296 0.15795198 -0.46101317 0.37379447 0.40813488 0.032389782 0.10407661 0.46540576 -0.08929118 0.004590028 -0.20841162 -0.8805541 0.23147994 -0.0868988 -0.46746257 0.32049963 -0.8569647 -0.4887328 0.22134529 -0.22835302 -0.040512662 -0.05007775 -0.024904067 -0.6408468 -0.010574652 -0.6131234 0.531659 0.101393715 -0.475897 -0.015271265 -0.14052048 -0.24841617 0.094881
wanita 0.09880746 -0.11488457 -0.006241174 0.7606658 0.13013163 -0.27145177 -0.5305947 -0.37313476 0.09568087 -0.24975987 0.21563579 0.53956944 0.22170238 -0.20265324 0.6277167 0.06658302 -0.13418488 -0.4112117 0.10945104 -0.15763685 0.27620217 0.0144776795 -0.0919926 0.27345988 0.12870128 0.10825207 0.32553554 -0.44526392 0.14542688 -0.2747146 0.075223476 -0.3203056 -0.39041674 0.18328677 0.40403816 -0.2899519 -0.3244751 0.089306094 -0.55683744 0.44642666 -0.4260307 -0.17565137 0.41675588 0.12611975 0.062161993 -0.60944116 -0.08381059 0.28468215 -0.64971656 0.2164693 0.46422714 0.39915246 0.17616203 0.08787993 0.6603184 0.1691942 0.37954944 -0.10120852 0.39014292 0.52326417 -0.48571458 -0.38188887 -0.17154755 -0.6324911 -0.0756712 -0.069912724 -0.016856141 -0.28258696 0.5009823 -0.5554382 0.13586801 0.32439107 -0.22388992 0.030609744 0.061105806 -0.17208722 -0.33222067 -0.33539766 -0.5411172 0.50566924 -0.09297159 -0.3519126 0.28735533 -0.63208514 -0.33114722 0.35449883 -0.054266587 0.07609378 0.18069862 -0.21044737 -0.2423956 -0.4090552 -0.37647104 0.73976076 -0.10739435 -0.15622194 -0.040938225 0.07603541 -0.18264994 0.05186462
gb 0.051156044 -0.7269858 0.34533378 0.45273218 0.26000717 -0.5403409 -0.2785719 -0.94432825 -0.70530987 -0.62307274 0.8472368 -0.20682216 0.3409206 0.008408253 -0.504115 0.37797454 0.12698781 -0.3253253 -0.41366443 -0.55790514 -0.110413305 0.06405506 -0.8062975 0.14041078 0.30712688 -0.15726547 -0.52891386 0.30540094 0.34692267 -0.44050092 0.21887551 -0.70964533 0.23525111 -0.51008505 -0.10899539 0.113144346 -1.0493834 -0.0921782 -0.2565718 0.16125642 0.049844418 -0.27929544 -0.39192873 0.5410626 -0.45159397 0.08982724 0.04612882 0.3198905 -0.06502203 -0.4365519 0.23744565 0.2780721 -0.26434132 -0.028812913 0.39986944 0.9998523 0.31723118 0.18103883 -0.18670765 -0.62371254 -0.4718608 0.46370918 -0.067870446 0.29968494 0.21444102 0.23921011 0.3352256 0.21490455 -0.16288409 -0.18711248 0.062194496 -0.5020311 0.01753517 0.44571808 -0.12073793 0.53442353 0.0050002937 -0.6793842 -0.22147092 -0.015808998 0.19647968 0.0754209 -0.3044829 -0.030669985 0.07145609 -0.091893926 -0.124086134 0.20461866 -0.30606568 -0.09259032 -0.034883305 -0.037598968 -0.02301299 0.6901847 -0.22282408 0.018453779 0.24880524 -0.22295587 -0.21375595 -0.60536975
cream -0.09156641 0.14008993 -0.47665715 0.36873898 0.320386 -0.026486995 0.23770083 0.0018474878 0.4130575 -0.16901964 0.09775434 0.49253368 0.2580219 -0.43084207 -0.468104 0.32581258 -0.0140057625 0.12211231 -0.024233954 -0.4752684 -0.22299346 0.3656082 -0.21410373 0.02276518 0.28516397 -0.46844515 -0.1684174 -0.051678408 -0.5430896 0.16945486 0.14237246 -0.41243577 -0.04478947 -0.011409779 -0.1988528 -0.32311913 -0.47369558 0.36495042 -0.48776782 -0.41415116 -0.024937011 -1.122698 -0.3562461 0.11038192 0.39652377 0.2749246 -0.7386955 -0.24969807 -0.8037013 -0.18270682 0.6047919 0.1863477 -0.116669945 -0.0362521 0.80347073 -0.22064961 0.053096335 0.29969248 -0.5651848 0.68796176 0.027558591 -0.56165415 0.04188685 -0.19295111 0.4340232 -0.9717199 -0.5973434 -0.055095185 -0.34932452 -0.1761434 0.040298283 0.38938743 -0.017878713 0.6598587 -0.8602443 0.26521748 -0.08679242 -0.5967548 0.27845174 0.5774238 -0.27317756 -0.2666492 1.2446878 0.88943833 0.025154982 -0.19724436 0.27072582 0.33036622 0.069653116 0.032542072 0.38118666 0.60516393 -0.4113394 0.92449933 0.06597886 0.51045877 0.55649865 -0.4746289 0.7886449 0.37764454
dress -0.081582494 -0.3627682 0.19364251 0.47325432 0.29200345 -0.24505936 -0.46745995 -0.16650143 0.0006732005 0.030946327 -0.20942262 0.49338883 0.5253946 -0.35814157 0.105670445 0.37356195 0.3593662 0.21356873 -0.13620354 -0.36643943 -0.1952691 -0.2937807 0.060642138 0.08606154 0.47043476 0.20781562 -0.2221743 -0.39951864 0.29151982 0.538725 -0.34093112 -0.4071944 -0.17566153 -0.07165923 -0.13118298 -0.45231575 0.58286 0.3381661 -0.4277389 0.7122607 -0.07315148 -0.2789474 -0.012693029 0.1721587 -0.52072126 -0.15381813 -0.4335031 -0.05002275 -0.28017125 0.0847672 0.109494224 -0.15065108 -0.02733554 -0.12145334 -0.078321554 0.007908977 0.37490845 0.50186276 -0.15982042 0.13057709 0.26723439 0.058076583 0.010136678 -0.3232711 0.6063558 -0.40141216 0.065975934 -0.7727582 0.33131278 -0.36833933 -0.41506204 0.65627635 0.1957382 0.21728067 0.63885486 0.2803173 0.37383452 -1.0299315 -0.1443346 0.1492914 -0.2140994 -0.59767115 -0.11264764 0.12248616 0.14939228 0.27434397 0.23424952 -0.027841078 -0.22137052 -0.37774292 -0.47510362 -0.5123269 -0.58447516 0.3992391 0.034158967 -0.69904804 0.29424822 0.60218364 -0.20821477 -0.04964019
untuk 1.0595977 -0.5053948 -0.5400493 0.33559117 0.0054445816 -0.6688184 0.04112784 0.069869936 0.2893464 -0.5276952 1.220455 0.6077179 0.32581753 -0.43577346 0.22911741 0.53936243 0.27085385 -0.47348374 -0.078739755 -0.6503777 -0.13490167 -0.09723169 0.18798749 -0.35035223 -0.26893944 -0.72969055 0.22499079 0.28528723 -0.13317281 0.16452795 -0.44741184 -0.2171748 -0.21099629 0.14161319 0.5366288 -0.03997027 0.1432564 -0.14679968 -0.52083755 -0.037404068 -0.575491 0.1575043 0.3853325 -0.15710454 0.18454263 -0.21246125 -0.13382317 0.06845979 -0.13072161 -0.1566684 0.44318697 -0.04494853 0.3824444 0.062330447 0.41847736 0.022621926 -0.19449702 -0.4598476 0.10940502 0.11627829 -0.3174245 0.45938617 -0.084262855 -0.25934997 0.045425396 -0.22216797 0.14575632 -0.39488533 0.0051699895 -0.098816186 0.4272498 0.17161608 0.45296893 0.11065568 -0.014811693 0.55369455 0.66761196 -0.466694 -0.8924933 0.34623957 0.3653571 -0.09623584 0.0031547153 -0.507623 -0.28421423 0.044984616 -0.036026116 0.4856416 0.5436424 -0.47385314 0.030240726 -0.15847482 0.30466512 0.5179557 0.31009254 -0.5990815 0.78242797 0.1564772 -0.34514186 -0.6890119
panjang 0.048987783 -0.00756878 0.16967802 0.6279292 0.4854255 -0.5297634 -0.32564265 -0.14773877 0.32801676 0.013914673 0.6076166 0.24124527 0.42545947 -0.14017983 0.18413441 0.17497678 -0.31895238 -0.36752203 -0.037448183 -0.4759534 0.20455864 0.09205884 -0.13913786 -0.0055760825 0.13175662 -0.38044593 0.23121138 -0.31121004 0.3643113 -0.13398248 0.11261414 -0.44497445 -0.6981288 -0.0033896249 0.45519018 -0.45132235 -0.22589141 0.04983283 -0.52500373 0.4384217 -0.07040723 0.14206576 0.30487132 0.09472168 0.452884 -0.55119413 -0.33712742 0.2117255 -0.3852936 -0.21660873 0.5010186 -0.39340755 0.6779277 0.13658163 0.09101244 -0.16657512 0.015701316 -0.16639629 0.36447302 0.44440374 -0.67669004 -0.17692557 -0.020351643 -0.44495097 0.39246726 0.0002033472 -0.16685133 -0.43221912 0.26710138 -0.6765549 -0.25071806 0.46567586 -0.15056825 0.096394144 0.3131005 0.47192714 -0.070519365 -0.3268644 -0.5525854 -0.026877228 -0.06671094 -0.2261626 0.5185605 -0.49062505 -0.24642077 0.44822836 -0.08245201 0.07566209 0.004385298 -0.49723944 0.07882755 -0.14916238 -0.63670594 0.6162583 -0.17530894 -0.2589238 0.020266086 -0.7399467 -0.6740204 -0.14859788
neck 0.38347304 -0.21372432 -0.5508639 0.43343833 0.2818184 -0.8349723 -0.41929397 -0.36143187 0.21825199 -0.10486697 0.20382275 0.55034894 0.00077483203 -0.3141065 0.43829915 -0.22651482 0.0067681335 -0.5861113 0.052711982 -0.19161633 -0.18155687 -0.3707706 -0.11016541 0.33020762 0.04500503 -0.31612116 -0.09993916 -0.1018386 -0.07988921 -0.104035415 -0.0067768525 -0.2691275 -0.37203893 0.1466804 -0.28394726 -0.1635838 0.09904945 0.72005415 -0.84995204 0.2780572 -0.18394999 0.5447929 0.05453698 0.04944217 -0.1470958 -0.6412307 0.061234195 0.27384323 -0.10905275 -0.30941275 0.2622523 0.19410951 -0.04050157 0.21475406 0.088512376 0.2696883 -0.10236111 0.39785168 0.13535893 0.20020123 -0.18860583 0.26637357 -0.030220121 -0.72055256 0.48889714 0.2226321 -0.2642236 -0.669386 0.12822492 -0.47842687 0.11148739 -0.20079654 -0.20106053 -0.06187895 -0.036367398 0.1300046 -0.2224611 -0.44668454 -0.45094538 0.5772973 -0.28732115 -0.042198557 -0.04885438 -0.2293662 -0.34188914 0.78351545 -0.10575475 0.23542622 -0.19037287 0.029521381 -0.6536012 -0.2883854 -0.66135895 0.5797852 0.03326143 -0.35633603 0.42219105 -0.35267437 -0.16725649 0.0705138
powder -0.13862011 -0.65840894 -0.15039119 0.09173484 0.3093371 -0.62458116 -0.5614569 -0.15660192 -0.16737875 -0.35467604 0.17003512 0.5877186 -0.13093884 -0.37028107 0.05815745 0.7240665 -0.1489954 -0.7898107 -0.28037506 -0.678478 -0.13143285 0.55197364 -0.38075474 0.20797898 0.72132444 -0.050190102 0.5406654 -0.29040918 -0.09614883 0.21664295 -0.48668346 -0.040220723 -0.5267737 0.40461946 -0.47088107 0.5921725 0.35305896 -0.10942142 -0.11587679 -0.4827548 0.076120205 -0.38820764 -0.06677615 0.5012299 0.52918315 0.9208824 0.13553047 -0.014078144 -0.29194325 -0.28370833 0.56198734 0.9617219 0.094460994 -0.6318969 -0.18842414 0.012420148 0.28576392 0.068860695 -0.2591439 0.46983552 0.28942043 -0.36148494 0.61793447 0.811713 0.4527756 -0.4744748 -0.68837655 0.20360345 -0.26385576 -0.47529092 -0.4146512 -0.103491165 -0.12321713 0.23135099 0.012950193 -0.90599597 0.11296226 -0.21119367 0.51843107 0.26477146 -0.43218097 0.6380444 -0.012090264 0.17468047 0.14633963 -0.040522985 -0.328827 0.28474647 0.185117 -0.36338204 -0.09361713 -0.39096457 -0.3557349 1.0601819 0.5610841 0.14194097 0.35685572 -0.40236646 0.64064693 -0.0052044885
promo -0.018744618 -0.14176904 -0.26826957 0.11385547 -0.1676064 -0.08314258 -0.24246518 -0.5314424 0.16070211 -0.20105956 0.5190491 0.11407186 0.2677393 -0.21765952 -0.72387785 0.24535069 0.2996633 -0.3623283 -0.2338253 -0.72606546 0.29298198 0.119266115 -0.36615738 0.40122294 0.13827944 -0.4734789 0.07415707 0.19212407 0.12700735 0.25325796 0.22864519 -0.3886337 -0.12584534 -0.03215715 0.087987594 -0.1703867 -0.34055856 0.028995747 -0.1524743 0.29779035 -0.4277265 -0.48590773 0.032185987 0.30392784 -0.06263759 0.2901377 -0.10991252 0.3309869 -0.054173455 -0.19476372 0.23475881 0.2697626 -0.24744529 0.38644496 0.22589806 -0.03499953 0.011840973 0.21494976 -0.068970256 0.39121646 -0.40900022 0.382424 0.21542145 0.25177997 -0.019839311 -0.39859074 0.06664238 0.22956139 -0.18070847 0.037866104 -0.3567249 -0.48392388 0.0024422652 0.33509868 0.028166208 0.508516 0.317197 -0.120865144 -0.15367533 0.31684098 0.66420454 0.054748476 0.074079186 0.0023613875 0.41902435 0.19136178 0.2060139 0.22525908 -0.068009175 -0.51005304 -0.10096788 -0.12951772 -0.41591647 0.33631164 -0.3328135 0.07967415 -0.5501966 0.04083025 -0.059308037 -0.19759537
model 0.56424975 -0.4183117 -0.5325766 0.55390066 0.2769775 -0.70562506 -0.86738825 0.25762147 0.20384715 -0.3476883 0.26404166 0.091881715 0.38791144 -0.42568174 0.031264167 0.08330795 0.23615424 -0.3225812 -0.43128294 -0.22928037 0.1210013 -0.25945535 -0.29347295 -0.6242772 -0.36506405 -0.49519628 -0.04993804 -0.24948114 0.41948137 -0.33657086 0.31514555 -0.56944335 -0.7600628 -0.27279872 0.6285093 0.45957223 -0.05110609 0.33016485 -0.62493306 0.4460684 -0.20987646 0.0640576 0.52216214 -0.033849493 0.24215128 -0.9318805 -0.4727281 0.08651918 -0.25768742 0.033030786 0.75463825 0.07580981 0.24020891 -0.2872278 0.18288314 0.078397974 0.4815289 -0.2738443 0.22797514 0.24753378 -0.30771855 -0.18735248 -0.53576654 0.13891818 0.017842755 0.011011329 0.03723479 0.009335099 0.26671126 -0.18438265 0.22028293 -0.14090875 0.12230906 0.0011602426 0.010141792 -0.057130657 0.45466292 -0.119144894 -0.62625515 0.56966335 0.017735094 -0.42575762 -0.09337208 -0.35179836 -0.35480756 0.042393904 0.04854684 0.81262785 0.2065351 0.013255831 0.10726738 -0.0095297275 -0.27109575 0.7195827 0.21313909 -0.48975396 0.8088186 0.2813013 -0.15928294 -0.41177967
matte -0.14469525 -0.28383508 0.1899377 0.20919915 0.44407892 -0.8936726 -0.26081714 -0.27788368 -0.15545267 -0.60529584 -0.25989306 0.043260086 0.14417353 -0.6569857 -0.25633383 0.40420938 0.36301875 0.10879569 0.1478815 -0.23269524 -0.46393645 0.73498726 0.15449926 0.026358293 0.1157153 -0.24277975 -0.40033382 0.19202659 -0.06208479 0.111711696 -0.29325554 -0.55707186 -0.13440709 -0.20637485 -0.2889962 -0.08390395 -0.29441142 0.7303559 -0.67215055 -0.109860234 -0.9043152 0.10335504 -0.93213797 0.21694247 0.59747386 -0.092702486 -0.66288143 -0.12086666 -0.75220096 -0.32022944 0.9122526 -0.20008178 0.109877646 0.16627687 0.41085878 0.086860545 -0.15416804 0.21389325 -0.2150293 0.20648317 -0.37347174 -0.25016317 0.48777542 -0.2970066 -0.5640781 -0.38066494 -0.50787014 0.02034024 -0.22796717 -0.75426275 -0.41174233 -0.17301357 0.3823952 1.0125339 -0.9241225 0.47808802 0.35963732 0.21985379 0.06330623 0.5938435 -0.15643568 -0.09888387 0.8163482 0.11546967 -0.65831286 -0.3600245 0.5210727 0.035414863 0.1507077 -0.07207936 0.50333333 0.69677174 0.13482524 -0.043996915 0.87269634 0.2348868 -0.4050266 -0.025884783 0.4397258 0.14800555
lip -0.004365455 0.28133506 -0.18334185 -0.08388099 0.21283098 -0.20452784 -0.08017852 -0.45300716 0.1859137 -0.06381306 -0.44265756 0.61964816 0.08228589 0.16055919 -0.34454143 0.3948377 0.08852767 0.09810456 0.54607844 -0.35939094 -0.39154804 0.5282084 -0.47293368 -0.16281465 0.33041024 -0.3483889 -0.56932443 -0.16616288 0.37247372 0.310425 -0.17995234 -0.28264764 0.060935162 0.18730146 -0.6173866 0.068847604 -0.19797398 0.86589193 -1.1762003 -0.31893608 -0.42989305 -0.1753346 -0.79452145 0.24473132 0.10132889 0.1496118 -0.9288618 0.1586635 -0.50094134 -0.45651913 0.09239695 -0.12838677 -0.0001852329 0.11328102 0.73704046 0.44859207 0.4002576 -0.094131574 0.395613 0.53982896 -0.41750666 0.1409975 0.048473638 -0.12322748 -0.36738467 -0.8913903 -0.7330825 -0.47346598 -0.5717967 -0.5106286 -0.39173344 0.14634441 0.1929793 0.8608264 -0.5179981 -0.14696884 0.29322758 -0.30532748 0.6055497 0.40099958 -0.57307893 0.0037479887 0.53383 0.43631718 0.073347375 0.10890999 0.7506059 0.05490909 0.27368572 0.5431186 0.057663634 0.6346501 -0.38248655 0.40964192 0.54408836 -0.10879213 0.3064367 -0.2523066 -0.21310642 0.13658392
original 0.10649553 0.05376454 0.106339514 0.30216324 0.08711088 -0.15149033 -0.43507335 -0.19374773 -0.20015676 -0.4276866 0.22938201 0.13884114 0.30719405 0.03496926 -0.6007435 0.09658638 0.3279106 0.0026908342 -0.26413393 -0.17480102 0.31369007 0.1614738 -0.45195398 -0.110979855 0.09705899 -0.019542264 0.15663306 0.10553514 -0.13955125 0.23530392 0.05423353 -0.424315 -0.09120593 -0.15875706 -0.26747403 0.0753141 -0.33716613 0.2180719 -0.5413376 -0.018025443 -0.35284624 -0.3763018 -0.28762186 -0.07515992 0.24507727 0.5355344 -0.38985562 0.590461 -0.5175574 -0.05759804 0.25222024 -0.11369681 -0.34780604 0.4002635 0.106485136 0.03217868 -0.24374047 -0.040210567 0.062142972 -0.01693831 -0.15330394 -0.2894427 0.108103484 -0.07163683 -0.22652961 0.09947989 -0.14891356 0.43313396 -0.07843447 -0.16070774 0.10529705 0.16851611 0.20087817 0.33482504 -0.34914398 0.08761047 0.09000135 -0.37864107 -0.44950888 -0.25570154 -0.34838322 0.23263857 -0.058658432 0.09779015 0.24150093 0.0208889 0.099317744 -0.23421443 -0.37467268 -0.101677954 0.4310608 -0.2927211 -0.32174286 0.33449554 -0.095108084 0.0015565136 -0.1948239 -0.0250967 0.054157734 -0.30225146
polos -0.1631862 -0.34429273 0.22536744 0.98797333 0.3083777 -0.5670679 -0.52585757 0.14857367 0.26944533 -0.40428156 0.56546247 0.43725854 0.13398167 -0.6107931 -0.07288929 0.69973946 -0.122986585 -0.32800373 0.5529643 0.04316281 0.0916527 0.27662238 -0.43378204 0.29022503 0.32814634 0.032984313 -0.08010505 -0.59140927 -0.095602065 -0.19415952 0.26015106 0.2905526 -0.0645028 0.3199519 0.55778015 -0.26177102 0.27201924 0.3191792 -0.22020714 0.7435911 -0.114885375 -0.45148337 0.4362335 -0.1283915 0.25171477 -0.4406889 -0.27820235 -0.029333787 -0.27580723 -0.23873173 0.13013901 0.23612185 0.33285955 -0.38547036 0.3680056 0.22848809 0.06957635 0.3711098 -0.36972502 0.45178145 -1.1176617 -0.087078065 -0.020980403 -0.54868966 -0.07196209 0.009709366 -0.28460723 -0.3662494 -0.09313267 -0.16809727 -0.3785387 -0.27643937 -0.082111835 0.41117954 0.016182385 0.0949444 -0.053153373 -0.059326235 -0.95838165 0.4990929 0.06983565 -0.5852648 0.2676401 -0.94652474 -1.1782392 0.12726592 0.2771456 -0.05683418 -0.18264635 -0.30126923 -0.17309639 -0.47877106 -0.5687135 0.6708108 -0.009673039 -0.42589724 0.21909016 -0.7439501 0.04203946 0.46806106
motif 0.62251824 -0.06338392 -0.71144354 0.99082017 0.3649709 -0.8033622 -0.7448911 -0.04658306 0.4608229 -0.47591665 0.9301086 0.45002323 0.43882963 -0.29753062 0.20049821 0.22566234 -0.06475482 0.034837935 0.5328315 -0.05069467 0.50521666 0.07428138 0.23616375 -0.08072949 0.3239811 -0.5498965 0.38212022 0.42450705 -0.065731645 -0.55847454 0.15345772 -0.15016936 -0.4479363 0.12995341 0.84127545 -0.001584161 -0.19836926 0.19066714 -0.52568674 -0.43460026 -0.32309958 0.17661707 0.12894239 -0.26765195 -0.17918932 -0.7390862 -0.34584618 -0.3036707 -0.42326805 -0.23500974 0.1881875 0.019338977 0.2836731 0.107601546 0.78080684 0.05596342 -0.018697917 -0.25741118 0.060659993 0.4755032 -0.43509108 -0.3837411 0.18436249 0.24606885 0.43296847 0.15225993 -0.3226346 -0.26672727 0.24160497 -0.21800847 -0.01697737 0.70982444 0.032364164 0.41084692 0.44570518 0.010659412 0.38868254 -0.40891162 -0.8372798 0.7754082 0.06382757 -0.21162964 0.24546577 -0.017618546 0.015902651 0.18162915 -0.037126284 0.3529976 0.054294445 0.23289397 -0.009628729 -0.52784294 -0.4067603 0.84781396 0.29724732 -0.5820724 0.41267675 0.24570356 0.021520829 -0.19114271
warna 0.2551194 -0.4484234 -0.17311105 0.3797821 -0.03389782 -0.21831368 -0.23735413 -0.09970658 -0.38699508 -0.8593782 0.3291063 0.23399329 0.004924318 0.048354845 0.27885163 0.76404035 -0.025396263 -0.8073087 -0.080586255 -0.4029027 0.16452178 0.27087608 -0.1414821 0.037573434 0.11269246 -0.27369842 -0.09139296 -0.1287677 -0.08759201 -0.6032448 -0.15074067 0.011032551 -0.45028195 -0.08624992 0.29436573 -0.32210454 -0.20284492 0.33191785 -0.79670966 0.23182206 -0.30343744 -0.26993 0.35398066 -0.0804922 0.30332094 -0.3697299 -0.22554477 0.03815747 -0.5183853 -0.17421857 0.036200926 0.0026969223 0.3773543 0.49973884 0.522131 -0.55699444 0.021628305 -0.1582916 0.34710795 0.14607279 -0.18759173 0.043463554 -0.0051434073 0.12458306 -0.34786952 0.13235246 -0.27915618 -0.5680231 -0.083005756 -0.34156728 0.10904912 0.47728994 0.21844599 -0.03627497 -0.17932391 0.24378869 0.37715095 -0.21879144 -0.57692343 0.50185406 -0.288066 0.037181538 0.53894365 -0.1519259 -0.65358615 0.20112681 -0.116794206 0.422595 0.2209436 -0.019367967 0.15979281 0.17302623 -0.14386985 0.617388 0.2581642 -0.5337325 0.7515319 -0.052662376 -0.50828445 0.120173916
kaos 0.23049532 -0.17003891 -0.12306617 0.91031426 0.69443953 -0.44855192 -0.36869264 -0.50730526 0.3947453 -0.1861234 0.56958836 -0.39329377 0.59980524 -0.05995481 -0.109840944 0.3823566 -0.21134329 -0.18620059 -0.00043311354 -0.34958082 0.023271369 -0.32375792 -0.16456671 -0.36364615 0.13932243 -0.38929367 -0.10720429 -0.7266733 0.35286114 -0.10575931 -0.3240297 -0.13166472 0.00030262995 0.34114477 0.90526605 0.0108521525 -0.14690948 0.16769329 -0.18199992 0.4122854 -0.71785957 0.14438035 0.22368376 0.041373484 0.3338841 -0.79399204 -0.13987608 0.54094136 -0.41721678 -0.63547474 -0.115964815 0.027961593 0.36306086 0.1906765 0.68768233 0.2610286 -0.101997204 0.08181786 0.644545 0.26571813 -0.6606744 -0.127723 -0.0010150288 -0.46529487 -0.007807956 0.18170281 -0.78754634 -0.57957524 0.12166319 -0.98540485 0.29602355 0.14134605 -0.006131729 0.2674791 -0.061929572 -0.090584636 -0.45829296 -0.4225966 -0.5734069 0.50870514 0.22070584 -0.122137494 0.63599074 -0.36265793 -0.09210567 -0.018410943 -0.18092333 -0.100209236 -0.50513417 0.11275839 -0.87535566 0.27119705 -0.25820133 0.7480146 -0.44291604 -0.74472207 0.3096514 -0.40235755 0.30525032 0.042518806
new 0.051252697 -0.75143987 -0.12490246 0.22321616 0.034122434 -0.40365347 -0.24476072 -0.64521617 -0.15924826 -0.3007812 0.02838766 -0.059566543 0.10708517 0.26642698 -0.36620927 -0.15424794 -0.1581222 -0.061363522 0.09388606 -0.0013097004 0.37950677 0.4840911 -0.13020961 0.23566346 0.16350602 0.29288256 -0.093859896 0.05305128 -0.18071687 0.023236338 0.2297921 -0.42806748 0.14898357 -0.1592223 -0.24919763 -0.00650139 -0.35395256 0.17370553 -0.20852658 -0.13968231 -0.23799615 -0.45271 -0.34515685 0.404703 0.09292538 -0.025582364 -0.083271556 0.021399008 -0.13397191 -0.030462533 0.37420195 0.449897 0.06548635 0.1912616 0.4032218 0.26718268 -0.0084735025 -0.0984985 -0.13057186 -0.08531669 -0.3992426 -0.39508715 -0.15061174 -0.29249737 0.13244718 -0.21268632 0.20178069 -0.21456209 0.0013734674 -0.15524739 0.01541396 -0.28664923 -0.1566253 0.29062748 0.12916075 0.4612547 0.08170553 -0.3473886 -0.1483645 -0.11407073 0.21487242 -0.319791 -0.047657087 0.12245955 0.18856801 0.37624037 0.15203173 0.06770892 -0.19542408 -0.23940484 -0.29608282 -0.079117574 -0.05671968 0.082512416 -0.06737415 -0.31307122 -0.3713553 -0.053937633 0.17835596 -0.43026823
shirt 0.28921306 -0.09630064 -0.50431496 0.24731779 0.7477917 -0.13062893 -0.76153153 0.07905415 0.3954815 -0.31134573 0.324816 -0.020157428 0.20795311 -0.10212354 -0.023739083 0.13223195 -0.10120537 -0.3381906 0.058361325 -0.27211547 0.19306153 0.011186701 -0.16036089 0.29797706 0.25063565 -0.5500886 -0.35607487 -0.037030194 -0.19906574 -0.0073946873 0.030493036 -0.08662431 -0.33547 -0.043756064 0.28370374 -0.03808426 0.3345791 0.18395513 -0.05233772 0.50803345 -0.23531206 -0.055333633 -0.054126438 -0.28292546 -0.18465506 -0.284611 -0.025803557 -0.040586412 -0.34212095 -0.17473552 0.90677774 0.5549978 0.15145685 0.15924664 0.75039464 0.4881369 -0.50316226 -0.1179765 -0.17452478 0.0050747073 0.007239516 -0.34269363 -0.17398278 -0.7447939 0.41346905 0.3887422 -0.70810527 -0.87316024 0.43372282 -0.6204692 -0.2063315 0.0602192 -0.06727344 -0.29121113 -0.06650398 0.51271045 -0.090705596 -0.53691536 -0.2696832 -0.068197414 0.051322486 -0.42884395 0.44727907 -0.24624678 0.055654395 1.1084087 -0.21296443 0.24807657 -0.4652125 -0.1669714 -0.75017774 -0.12202666 -0.2247317 0.6087369 0.29003915 -0.55602866 0.07668578 -0.23880072 -0.34265018 0.33075047
sexy 0.4250556 0.037258126 -0.20988612 0.50727075 0.08588314 -0.85352546 -0.3137845 0.0024836117 -0.30921194 0.019511815 0.8940747 0.51692265 -0.20368634 -0.54603624 0.24512014 -0.072512105 0.0063034655 -0.5855158 0.24756598 -0.20229577 -0.06959977 0.13219063 -0.4191659 -0.2102914 0.17812134 0.23284493 -0.34360728 -0.46019578 -0.15131742 0.08485507 -0.005618428 -0.20330042 -0.5362433 -0.17290576 0.0723372 -0.3256462 0.5080539 0.20443907 -0.14810775 0.0063959025 -0.4351154 0.13538168 -0.17444485 0.31249136 -0.19151722 -0.8801782 -0.47972646 0.23840049 0.04736438 0.43677709 0.27722314 0.17846026 0.19167992 -0.14377125 0.05342952 -0.00029409464 0.52157736 0.40681714 0.39623758 0.11881327 -0.21329555 -0.3842591 -0.039149966 -0.38841778 0.099655084 -0.05978516 -0.8959611 -0.4544243 0.08769923 -0.42253923 -0.0059663444 -0.24255343 0.21654817 -0.50363374 -0.5151488 0.15079314 0.24923149 -0.77714187 0.046086833 0.41819027 -0.23949054 -0.19923155 0.32648018 0.13137527 -0.38353878 0.55805135 -0.09657255 0.13329394 0.15902978 0.061841965 -0.2667887 0.22716339 0.053022854 0.9863227 0.28369486 -0.15060951 0.023703104 0.5391616 -0.42149967 -0.32772183
bahan 0.68104064 -0.41308764 0.17073214 0.5927879 0.26626134 -0.8033489 -0.6263865 -0.38349736 0.3938299 -0.30105042 0.53729177 -0.005898352 0.29040968 -0.8520625 0.21590503 0.7077641 0.28928056 -0.60125184 0.053523198 -0.20683827 -0.0045502633 0.3723958 0.010928501 -0.15205051 0.23960967 -0.2838514 0.12389234 -0.2731188 0.17945194 0.28325087 0.28829855 -0.40081036 -0.778053 0.4748949 0.21329212 -0.23191643 -0.16609609 0.19275793 -0.43924484 0.5536537 -0.1856385 -0.2569029 0.08730423 -0.77493 -0.4150186 -0.6834464 -0.17942765 -0.3159292 -0.26486883 0.19321679 0.0850632 0.07999974 0.7441624 -0.18464763 0.60052824 0.18608752 0.519621 -0.37912515 0.09788674 0.6159816 -0.37819484 0.22571869 -0.2488097 -0.14149857 -0.27837035 0.2525278 -0.053817984 -0.14555742 -0.062122453 -0.754855 0.018984685 0.30817878 -0.0033553136 0.15170532 -0.00648401 -0.09590857 0.38579744 -0.053211614 -1.0896134 0.6527493 -0.23601449 -0.29472712 0.57690454 -0.36138928 -0.0077277375 0.48185632 -0.29475793 0.22603922 0.29925504 -0.1302403 0.22525544 -0.33537114 0.14669569 0.7323133 0.06343354 -0.48060662 0.68558455 -0.100628704 0.39448813 -0.07383148
samsung 0.6509358 -0.33992884 0.29527175 0.5785809 0.16032375 0.11495957 -0.5160058 -0.75345594 -0.69799584 -0.71004075 0.22330001 0.3143153 0.03259638 0.06781858 -0.5425299 0.4367839 0.38302806 -0.42180908 0.39445192 -0.61109495 0.6563115 -0.39796236 0.099363126 0.3093292 0.15316962 -0.15072973 -0.016445993 0.66027474 0.83832765 0.5484874 0.67451596 -0.17501625 -0.27388608 -0.020102635 -0.81341845 0.10617418 0.04131048 0.6211714 -0.0649442 -0.62516105 0.23074786 0.11627688 -0.33687124 0.3140041 0.15459749 -0.059061423 0.07524462 0.7826936 -0.2147352 -0.16631912 0.1667333 0.55559045 -0.61653227 -0.03197386 -0.22080337 0.6453615 -0.33995447 0.03076418 -0.1537934 -0.9720278 -0.88305056 0.89788723 -0.58920217 -0.10976326 -0.27318546 -0.3629366 -0.6757498 0.1479031 -0.03170544 0.24012087 -0.01883372 0.19417174 -0.7097365 -0.026592566 -0.39766413 0.3543466 0.6263747 0.444422 -0.04637881 0.13890281 0.6455413 -0.15971737 0.612108 -0.04644431 -0.30366725 -0.2523641 0.21587695 -0.37284315 -0.5927452 -0.2777376 0.31135422 -0.19912125 -0.14325246 1.9048324 0.23201199 -0.3320262 0.044848207 0.4175394 -0.20381418 -0.38584325
casual 0.4208506 -0.40491325 -0.18171905 0.74257624 0.53360057 -0.43585002 -0.5975316 0.2845947 -0.06099203 -0.19740261 0.52385867 -0.013832738 -0.14620051 0.089600794 0.4722758 0.00859867 -0.00019602237 -0.46779418 0.3381492 -0.6446768 0.040992264 -0.45805177 -0.4939102 0.16134447 0.14928947 -0.37881172 -0.43726355 0.062679805 -0.2642778 0.03434936 0.19348542 -0.17098582 -0.5352163 0.47353482 0.3322392 -0.13596153 0.24650843 0.6936284 -0.3572794 0.3225655 -0.42429614 -0.06496532 -0.27537385 0.12115555 -0.25030768 -0.47380707 -0.33038506 0.30159783 -0.038897246 -0.01623932 0.36772496 0.0008323358 0.28094828 -0.19452003 -0.28647473 0.1518999 0.31491044 0.25284448 -0.28971618 0.56330454 -0.25827453 -0.2939968 0.27573046 -0.51256365 0.36300695 0.3831931 -0.21095528 -0.517921 0.7458516 -0.5924831 0.20694107 0.11807694 0.15458825 -0.23113775 0.19742012 0.37034842 0.112683095 -0.81872684 -0.25901046 0.44526204 -0.26327404 -0.2439351 -0.07147161 -0.33711392 0.02720091 0.5460657 -0.18056221 0.7173074 0.23625606 -0.306097 -0.41038463 -0.44127235 -0.33173245 0.33687803 0.38818675 -0.41509852 0.31458253 0.14505848 -0.09163416 -0.19564457
murah 0.2555191 0.15509689 -0.00852385 -0.015248646 0.08786785 -0.14744109 -0.24150355 -0.3395341 0.11768639 -0.12993823 0.36699632 0.12077467 0.42988348 -0.09910138 -0.3765824 0.122664064 0.33843207 -0.1253183 -0.2689701 -0.46574274 0.55028445 -0.21865599 -0.24886964 -0.27149743 0.44241053 0.268645 -0.14734472 0.059963968 0.16100764 -0.31409633 0.14188781 -0.33784553 0.0820509 -0.05573975 -0.00943632 -0.056930363 -0.01582123 0.08527527 -0.0313276 0.25067627 -0.27937987 -0.52176255 -0.08961608 0.10108935 -0.050296567 0.098305106 -0.37861383 -0.020235738 -0.34988678 -0.3219705 0.023165325 0.1592641 0.20262736 0.48920998 0.28767332 0.23774989 0.052684456 0.1922888 0.05150884 -0.10514538 0.016163485 -0.15832098 0.52022994 -0.5946508 -0.030502442 0.23776755 -0.11510196 0.14997323 -0.2846656 -0.2920459 -0.01606679 -0.014112343 -0.13507687 0.10323719 0.086021475 -0.105256766 -0.16801162 0.0077939206 -0.2955019 0.5136505 0.03045152 0.36484078 0.2712788 -0.22104326 0.05906841 0.244398 0.277135 -0.08733515 -0.26079604 -0.51968867 0.015937673 -0.23384905 -0.2543283 0.22823484 0.056736905 0.2411153 0.09805336 -0.2822588 -0.13100858 0.2934367
garansi -0.09626892 -0.3588733 0.83172536 0.23909518 -0.008332663 -0.71178156 -0.40320498 -0.7022333 -0.6907242 0.19352123 1.0702894 0.13483876 -0.3251723 -0.21172234 -0.9483479 0.45315614 -0.14046398 0.08226928 0.19123471 -0.70859575 0.020687321 0.118419655 -0.22126314 0.47240856 0.20314607 0.1744155 -0.7061888 0.38661468 0.11117108 -0.18676607 0.25806463 -0.28890455 -0.20603526 -0.81725496 0.020623025 -0.013694616 -0.34758663 0.009458246 -0.46206006 -0.10936366 0.019609926 -0.44145033 -0.23078573 0.6193727 -0.3828704 0.6011607 -0.37177593 0.43440604 -0.6948982 -0.0734306 0.30967087 0.1231279 0.087739676 0.22056411 0.31051072 0.29649395 0.26484016 0.021804225 -0.24719882 -0.52034724 -1.2035713 0.30667737 -0.071836926 0.43588072 0.057148475 0.339949 0.43702495 0.09951289 -0.08472063 -0.3049475 -0.10889114 -0.45125037 0.30044684 0.7495059 0.04119148 -0.031678647 0.07736369 -0.6810295 -0.5165744 -0.15545006 0.63997036 -0.1571421 -0.11511957 0.3713984 0.28014395 -0.15233016 -0.26991913 0.15372322 -0.3192604 -0.39983997 0.32034546 -0.5088174 -0.50734526 1.1522267 -0.25954777 0.0062075276 0.11600386 0.3086367 -0.2128255 -0.38727775
bb 0.38099664 0.21531548 0.81240535 -0.13266127 0.25368163 -0.18933003 -0.64580226 -0.074876614 -0.21002679 -0.50048816 0.11951419 0.19576785 -0.4949345 0.090001166 0.17829923 0.030191448 0.027545953 -0.3041423 0.32708576 -0.7291621 0.5183201 0.08559154 -0.08762755 0.19918804 0.2324513 -0.3555353 -0.057968784 0.4380908 0.82202154 -0.13550498 0.33815077 -0.15884382 -0.3069716 -0.14516343 -0.36171204 0.7197994 0.09195777 0.015697034 0.016848067 -0.17794459 -0.120660946 -0.32897446 -0.31519672 0.6571749 0.10479565 0.15530169 -0.14596455 -0.23786049 -0.55126387 -0.6617959 0.26260665 0.11360569 0.37498623 -0.13991137 0.2305733 -0.13330808 -0.20069985 0.3159835 -0.43633702 0.5754545 0.03094594 0.6235977 -0.3899179 0.18555886 0.24728155 0.21367507 0.16728176 0.37383392 -0.3744919 -0.31505665 0.4672672 -0.42474583 -0.34891403 0.29827863 -0.007902573 -0.8403086 -0.7743248 -0.7067369 0.07004228 0.5802678 -0.61897165 0.24101888 0.23297001 0.20571756 -0.9120422 0.042939477 0.40354353 0.039674275 -0.42925343 0.828391 -0.60173386 0.24507305 0.4771171 1.0945948 -0.0813944 -0.09713798 -0.023840828 0.44055492 0.41277602 -0.10820457
pendek 0.42071444 0.1576375 -0.2807138 0.7139299 0.17419608 -0.2611753 -0.44094545 -0.30018952 0.4958063 -0.11644107 0.73977405 -0.13694751 0.20794868 -0.20771725 0.425778 0.38943943 -0.10150257 -0.1648639 -0.3981439 -0.42216125 0.015233852 0.04658711 -0.27882 0.14189483 0.2969395 -0.66856414 -0.37075284 -0.39451614 0.10847348 -0.35247388 -0.26822338 -0.3604572 -0.89727736 0.25079927 0.38781032 -0.11406407 -0.073163435 0.17934972 -0.534098 -0.02840096 -0.24305375 0.41084367 0.10222181 0.043046102 0.45453683 -0.69033605 -0.21170649 -0.025521876 -0.75393003 -0.10687273 0.34231436 -0.09222655 0.20757402 -0.0029707747 0.5082018 -0.13777834 -0.060933363 -0.13815333 0.4746757 0.6566517 -0.79901046 -0.34461236 0.1976329 -0.55173934 0.26243183 0.1792006 -0.20304434 -0.56484556 0.43719283 -0.740968 -0.47058266 0.12672165 -0.22598998 0.10408773 0.49189198 0.25761822 -0.18615688 -0.31419015 -0.767157 0.18379152 0.18244526 0.031874526 0.5524113 -0.6134896 -0.31430334 0.48348323 -0.29583475 -0.31910798 -0.06822596 -0.2987073 0.14000297 -0.16578308 -0.21276598 0.23248158 0.17109153 -0.5080593 -0.33876497 -0.5455235 -0.15294938 -0.53859663
iphone 0.44808137 0.35373855 0.27588072 0.4252938 -0.2251569 -0.22762443 -0.5793228 -0.08474541 -0.5522802 -0.11332856 0.21827802 0.010518984 0.8907097 -0.82672083 -0.78641355 0.36930838 0.00931003 -0.32931843 0.25576892 -0.8349662 0.38381648 -0.54801244 -1.1344423 0.17588152 0.3056286 0.29179388 -0.45315313 0.75211614 0.2559964 -0.33128494 0.4529366 -0.21162838 -0.1244101 0.16986498 -0.23648573 0.060294032 -0.7215938 0.29368603 -0.4515555 0.25909325 0.63952285 0.13625032 0.34819 0.7231065 0.3873552 0.31297353 0.115300864 0.4091671 0.010218932 0.1848403 0.3134363 0.6336458 0.27108675 -0.1598076 -0.2473464 0.09400574 -0.25063023 -0.78780586 0.50317943 -0.35034558 -0.50819093 0.45741835 -0.75914013 -0.29721734 0.61600995 0.033290494 -0.13765426 0.29625437 -0.007946134 -0.2579102 0.06254702 -0.23965715 0.08473992 0.6331111 -0.66693085 0.3838175 -0.00420607 0.27718496 0.18336591 -0.27212217 0.43392435 0.31036365 0.52238697 0.32054594 0.3752133 0.42763075 0.06398795 0.2596846 -1.217537 -0.51648223 0.5598629 0.31443024 0.7534427 1.1821177 0.3848016 -0.31537604 -0.14954893 0.055969674 0.3978813 -1.0273443
print 0.3094695 -0.8028069 -0.14836133 0.8096413 0.554166 -0.38047573 -0.6835803 -0.24232365 0.0024354456 0.33020893 0.57313776 0.45246932 -0.19629066 -0.51653486 0.002232862 0.14557788 0.026616339 -0.42837656 0.63144606 0.88149625 0.39554 -0.46857688 0.08580936 0.012573757 0.7345593 -1.0430182 -0.3285333 0.49100035 -0.23448858 -0.29704016 -0.029863754 0.056067877 -0.069988206 0.08995623 -0.047833957 -0.32490772 0.05655515 0.40527207 -0.6013815 -0.19431229 -0.76944214 0.39792448 -0.044875085 -0.3798646 -0.04299149 -0.28642768 -0.78145623 -0.12984769 -0.0072818063 0.089529626 0.79744714 0.09530602 -0.04054426 -0.097448274 0.52119046 0.6845812 0.102652036 0.0029290912 0.16450655 0.5699912 -0.3386001 -0.06874588 0.21425311 0.22870615 0.2644319 0.7286854 -0.47770125 -0.5552257 0.5634595 -0.23678423 -0.023738116 0.12688898 0.37431803 -0.03259892 0.40553573 0.7436563 -0.15516935 -0.75592524 -0.893903 0.23874941 0.05891646 -0.2665014 -0.37876394 -0.43324035 -0.5568674 0.075920425 0.530018 0.05871735 -0.87068343 -0.37209433 -0.36940366 -0.6632273 0.11292493 0.3298815 0.46575332 -0.577612 0.040624507 -0.09398339 0.095136434 -0.3722266
dengan 0.28153163 -0.24845864 0.075992934 0.3506251 0.2765503 -0.23629375 -0.47274685 0.23140831 -0.052412223 -0.33003804 0.6536671 0.5588225 0.5221033 -0.31614864 -0.011075468 0.04909345 0.086357385 -0.24965763 -0.058019694 -0.4377584 0.48435962 -0.21174112 -0.4573511 -0.3638889 -0.28628826 -0.21621825 0.29733086 0.30824715 0.018446617 -0.108767934 -0.13814262 -0.2956261 -1.0397079 -0.1589068 0.37487346 0.0752203 0.2460187 0.073566355 -0.96225214 0.087942034 -0.09377065 -0.15052162 0.1614606 -0.25354168 0.10986844 -0.7065373 -0.06766783 0.066486396 0.2446572 0.18096717 0.36392033 -0.62008196 0.65055287 -0.271276 0.3967946 0.050060157 0.32832232 -0.46073872 0.46370697 -0.50543547 -0.05100553 0.2551498 0.20128438 -0.29107493 -0.47920462 -0.090574205 0.003864026 -0.79217476 0.33223063 -0.5457042 0.04274877 -0.06534302 -0.3832532 0.088893116 0.24848686 -0.06135377 0.60957974 -0.23901886 -0.5474549 0.84205884 0.121556096 -0.12959062 -0.008823126 -0.007165458 -0.196498 0.29309905 0.32166848 0.8990182 0.650855 0.4992273 0.39515927 0.44995344 -0.02472972 1.0889859 0.6001706 -0.7957855 0.29907227 0.47702527 -0.2285014 -0.43235195
cushion 0.17253648 0.11171841 0.38129175 -0.230901 -0.055643152 -0.8496696 -0.76438105 -0.18451512 -0.17715201 -0.7822977 0.75070167 0.30638388 -0.07555813 -0.809251 0.7363603 -0.06658533 0.3736706 -0.89083356 0.005459276 -0.85141456 -0.16957355 -0.31466582 0.021661868 -0.19553189 0.016463593 -0.5564004 0.3283643 0.2126325 0.42383698 0.20226526 -0.64765733 -0.1554468 0.19170415 0.6927459 -0.3849984 -0.073490955 0.28451884 0.6283262 0.14095774 -0.3005653 0.29933617 -0.85312355 -0.9905851 0.32460165 0.9518053 0.7859805 0.08058892 -0.38514137 -0.7059907 -0.84787965 -0.052909955 -0.33889925 0.4401417 -0.20485911 0.3736519 -0.32717505 -0.33923325 0.032300383 -0.047419727 0.6392545 0.35364634 -0.18054517 -0.4674481 0.62002057 1.2693957 -0.55682015 -0.113368385 0.033293936 0.0144927725 0.46556208 0.5561475 -0.13761052 0.4390148 0.7298656 -0.2584234 -0.08733254 -0.086670406 -0.03829673 0.65676415 0.3238432 -0.19344978 -0.5453303 0.31223148 0.29200077 -0.15206027 0.028253138 0.4566008 -0.020206587 0.35051274 0.10638337 -0.36892262 0.24456646 -0.26802102 1.0242401 0.00014036571 -0.6800181 0.20960961 -0.18485992 0.32322508 -0.34074026
lace 0.1703891 -0.26548937 -0.26634377 0.529616 0.22426282 -0.7475107 0.049293496 0.23426062 -0.89161336 -0.24626046 0.24329406 0.31008908 0.534857 -0.17806728 0.45191848 0.4103978 0.056696594 -0.31845713 -0.22794148 -0.05857799 0.0010625236 -0.014892218 -0.3487281 0.4568067 0.10232455 0.34825256 0.16252394 -0.6246227 0.20392141 -0.48203835 0.23473378 -0.5166449 -0.22173022 0.24578667 0.03737728 0.011983636 0.38268682 0.7003361 -0.07927596 0.365828 0.20734543 -0.032637313 -0.3565534 -0.11374995 -0.12098299 -1.224435 -0.27868816 -0.07447835 -0.45218122 0.26295733 0.3743615 0.13512045 0.083519794 0.31526384 -0.6131647 0.22702459 0.12830105 0.2251821 -0.045750782 0.5023372 -0.123234265 0.06732638 0.4380975 -0.658083 0.7280862 -0.20905992 -0.4140135 -0.7956221 0.23538119 -0.24866986 0.048373926 0.19431458 -0.14120413 -0.27466673 0.048176907 0.40945265 0.4996101 -0.8417993 -0.009994161 0.41210505 0.032338373 -0.38582104 0.27513576 -0.4851458 -0.041944746 0.018707685 0.2544749 -0.20529671 -0.5117064 -0.25277436 -0.59105617 -0.16564427 -0.0691904 0.92927766 0.17086351 0.12366143 0.09134609 0.4824274 0.16033788 -0.44535846
women -0.040304534 -0.38242877 0.038957972 0.546818 -0.009290199 -0.21331652 -0.32304022 0.0025385418 0.19946395 -0.19871196 0.20156293 0.302474 0.26752105 -0.57662547 0.41300032 -0.841029 0.109835126 -0.5479191 0.016129673 0.4424612 -0.15222503 0.340135 -0.32383582 -0.5428944 0.12288679 -0.65244615 -0.5517465 0.2842192 0.34353602 0.25476256 -0.2704124 0.31302977 -0.7576921 0.5508204 -0.17018321 -0.13805299 -0.5231906 0.40261048 -0.26624817 0.685884 -0.19517918 -0.5653857 -0.43713245 0.66495955 0.09029458 0.05271987 0.10941908 0.37197372 -0.5380026 0.23888701 0.5629417 -0.019284006 -0.4013952 0.48711312 -0.38574347 0.07570109 -0.30933246 -0.33054549 0.039735083 0.19455263 0.15010566 -0.7739063 0.28323463 -0.3052126 0.18215135 0.09958926 -0.1835378 -0.4860039 -0.038207605 -1.4078317 -0.17560534 0.08745872 -0.5067648 -0.40702832 -0.25358218 0.100605905 -0.15519565 -0.80272573 0.16973291 0.11463343 0.4885747 -0.470084 0.34203884 0.23494774 0.27103347 0.3790301 0.099217296 0.42232564 -0.093260296 -0.57198554 -0.3811064 0.052803896 -0.8612158 0.6225706 0.050745893 -0.49694568 0.47304085 0.6248807 0.19153436 -0.77880526
long -0.0005006115 -0.123509325 0.55502725 0.37156388 0.3299822 -0.6240186 0.04040418 -0.22617108 0.35080546 -0.3459961 -0.0015856513 0.70120996 -0.013289852 0.12505332 -0.02272704 -0.30820015 -0.3723243 -0.08176339 0.30327186 -0.22529826 -0.1706645 0.22918022 -0.14289188 -0.3016686 -0.006586412 -0.4703765 -0.3911168 -0.19316399 0.23619087 0.07277438 -0.06746504 -0.12676555 -0.15812925 0.26519075 -0.41844603 0.36109716 -0.034913227 0.426898 0.12266354 0.107762285 0.06564392 -0.21803609 0.09403564 0.43236253 -0.07860869 -0.26227078 -0.14385965 0.22022584 -0.20207208 0.24877357 0.6419472 -0.37183627 0.29591843 0.5936285 -0.21123545 0.13576667 -0.2171839 0.06702887 -0.25052705 0.2683748 -0.13056706 -0.19170693 -0.0199157 -0.4933302 -0.47904292 -0.048335735 -0.5218642 -0.45313498 -0.17538032 -1.1354842 -0.0014301412 0.28654566 -0.35291865 -0.1826947 0.25186312 0.21669544 -0.2526917 -0.46009707 0.0032013105 0.29984263 -0.09487928 -0.6782686 0.29313505 0.115436345 -0.075332314 0.10265649 0.118300274 0.4334115 -0.2484104 -0.87969595 -0.50711507 -0.17032743 -0.6227109 0.6258228 1.0079489 -0.32167652 0.44384944 0.39551142 -0.23122695 -0.33046612
musim 0.56040484 -0.38889313 -0.089688964 0.72079825 -0.33501464 -0.8467321 -0.25444603 -0.47527632 0.15977527 -0.35830718 0.5665277 0.19681875 0.57268554 0.23904979 0.41078964 -0.0079743825 -0.17300688 -0.71083915 0.13990061 -0.61821187 0.28892866 -0.0025843962 0.17400806 -0.051207438 0.29024163 -0.19338746 -0.037944272 0.34143758 -0.059255756 -0.2520908 -0.61798996 -0.06532162 -1.3658768 -0.40637404 0.23864721 -0.27117717 0.10310454 1.0874846 -0.9428718 0.44488937 -0.40280518 0.3461072 0.2814493 -0.2541191 0.40476766 -0.51993656 -0.13752803 -0.17652406 -0.13492402 0.47230306 -0.08450621 0.44745877 0.34322238 -0.574674 0.99180937 -0.014500571 -0.01166276 -0.47279826 0.15414676 -0.16661926 -0.10208879 -0.324046 -0.42284104 -0.5409317 0.36892033 -0.029744264 -0.034406174 -0.48204917 0.09565393 -0.4983279 0.103967875 0.3104057 0.26561275 0.14946872 -0.022110611 0.18820997 0.08182343 -0.9550588 -0.50848347 0.5039952 0.27782494 0.11778657 -0.20325617 -1.228459 -0.02256494 0.39292917 0.24496184 0.72415996 0.41403776 -0.6126196 -0.08400065 0.025134472 0.27804428 0.97156435 0.18698238 0.11530967 0.2778289 0.24241833 -0.38609797 -0.13273203
resmi 0.13839255 -0.62313867 0.29157668 0.14430629 -0.18840802 -0.5241977 -0.5477227 -0.5043694 -0.573558 -0.3238893 0.71565986 -0.49780044 -0.02237737 -0.37122643 -1.1404665 0.73679614 0.13686965 -0.4932796 -0.3972845 -0.229058 -0.49092567 0.1700696 -0.6551225 0.4499203 0.3355606 0.09533761 -0.35760844 0.42574033 0.081628494 -0.13369063 -0.1594831 -0.99239737 0.11130311 -0.58994025 -0.35976064 0.28610638 -0.2548059 0.16346169 -0.7458004 -0.14610131 0.08791502 -0.37417826 -0.55978787 0.122508116 -0.07570669 0.3563951 -0.1992198 0.5200574 -0.38315868 -0.55528796 0.40108955 0.31857902 -0.3495425 -0.13008909 0.50289416 0.51476663 0.19231367 0.08504793 -0.2970725 -0.7907497 -0.9904352 0.071667284 -0.11342561 0.34163868 0.21423393 0.17924592 0.36039627 -0.05947795 0.18740633 -0.4637402 0.15464488 -0.44964066 0.69658655 0.042461175 0.15764512 0.67581224 0.25976795 0.1798927 0.014800702 0.1685891 0.75008583 -0.46714744 -0.036619835 0.14114572 0.07673781 -0.3677481 -0.6347574 -0.16217166 0.21678819 -0.4503114 0.34731567 -0.5567253 -0.58643717 1.1445343 -0.17063375 0.37303072 -0.16547532 -0.23171636 0.022401357 0.14809684
spf -0.0620281 -0.22478305 0.8512846 -0.24153474 0.066236824 -0.64598286 -0.17648171 0.38455948 0.5543547 -0.70819634 0.39267257 0.3425214 0.10328693 0.31504935 0.70859885 0.37875324 -0.28553218 -0.9101573 -0.06006854 -1.0217053 -0.46265987 0.83358 -0.7245424 0.58296674 0.0430896 -1.1628903 -0.34659234 0.039803274 0.32026747 -0.14199878 -0.12829395 -0.14947142 -0.79237896 -0.79853857 -0.27306107 0.1788743 -0.3106678 0.014826897 -0.060155407 -0.9767104 -0.22062278 -0.48201352 0.08026804 0.075330675 0.1418945 0.22206858 0.2549323 0.0651992 -0.5937361 0.18424205 0.09475561 0.21372278 0.24551603 -0.4039742 -0.07157407 -0.04627151 0.16126847 -0.31152034 0.20009327 0.43774292 -0.0436173 -0.19482571 -0.8109897 0.057535823 0.38452873 -0.36103752 -0.039109483 0.2571652 0.09097141 0.19002965 -0.26127392 -0.1560212 0.40547532 0.3759472 0.059495673 0.20378691 -0.42541334 -0.2218961 0.23322639 0.54453176 -0.6599222 0.14876905 -0.117883705 -0.12752832 -0.24180728 -0.23945901 0.8701833 -0.26257426 -0.65262055 0.5005596 0.07629678 -0.36107576 -0.1640623 0.51019657 0.2714446 0.4084747 -0.41802868 -0.30443195 -0.05406784 -0.24775498
ram -0.06125304 -0.59869856 0.06495611 0.026321119 0.113058746 -0.22371489 -1.0621625 -0.52938056 -0.22285022 -0.7815171 0.59632236 -0.2837631 0.36182526 -0.08620667 -0.71587414 0.69446045 -0.18189526 0.28061917 -0.13437496 -0.07262678 0.059202958 -0.014537294 -0.8248453 0.10174687 0.35600993 -0.36530286 -0.6549146 -0.05710699 0.5851829 -0.78369635 0.5311172 -0.24154148 0.11462667 -0.63285774 0.40476674 -0.2795482 -0.44515914 0.06019661 -0.17181672 -0.0899979 -0.4546469 -0.6764305 -0.2665315 0.27233648 -0.0028093334 -0.3109294 -0.11135871 0.07402832 -0.30582914 -0.4132411 0.18644783 0.29481086 -0.6969564 -0.42758387 0.24097206 0.8215565 0.33246964 0.3064536 -0.4384237 -0.72197616 -0.40568194 0.89180213 0.18654296 0.12396727 0.40063864 0.5971638 0.7905214 0.39590985 -0.45297143 -0.05819936 -0.047051694 -0.7889847 0.80698484 0.4192281 -0.1609897 0.99256516 0.1252101 -0.49381578 -0.029052392 0.065745175 0.52996993 -0.21992463 -0.41014698 -0.09989757 -0.04454581 0.0057820873 -0.07638892 0.4555008 -0.33133212 -0.2426584 -0.04809062 0.104469925 -0.44794378 1.2669184 -0.09493003 0.28420204 0.07236369 0.2849951 0.06610017 -0.47099158
blus 0.2068385 -0.37468937 0.24779952 0.5691074 0.6116714 -0.3846703 -0.7511099 -0.2636905 0.5783287 0.060967512 0.54282814 0.3774242 0.75242484 0.032630023 0.116768144 0.33339655 -0.055891965 -0.66343534 0.08336999 -0.37728754 -0.28615147 0.5133308 -0.08234903 -0.72071034 0.07297404 -0.151739 -0.44827875 -0.36989918 0.4158627 -0.10670501 0.3829027 -0.3582188 -0.408352 -0.15025993 0.9099722 -0.28681087 -0.00200746 0.5674198 -0.40658683 0.62721896 -0.30854508 -0.08028105 0.17979203 -0.2687632 0.6808724 -0.83247954 0.05263764 -0.08045992 -0.1791871 0.006563565 0.7385421 0.09275826 -0.22898155 -0.13139877 0.66344064 0.72781426 0.38138163 0.058066808 -0.15287788 -0.1447717 0.031602897 0.17556353 -0.18484138 -0.4830735 -0.19386514 -0.19709358 -0.25799832 -0.78336 0.48013598 -0.024464767 -0.23770083 0.42834726 -0.34422088 -0.009914862 -0.05691783 0.052045614 0.18734483 -0.89290136 -0.4169846 0.5220352 0.050145965 -0.5804009 0.2447977 -0.5389312 0.054975025 0.56147605 -0.55779654 0.48716626 0.054257076 -0.057765312 -0.46215424 -0.2234677 -0.24604331 0.573218 0.50830936 -0.5016657 0.2657842 -0.19116163 -0.44290474 -0.015437631
pesta -0.011237308 0.09364531 0.391531 0.63008136 -0.27208522 -0.23928794 -0.22831638 -0.48527676 -0.2653454 0.30946788 -0.009083409 0.48315027 0.54960424 -0.5444575 -0.13267297 0.71701825 0.97050834 -0.09789262 0.02908044 -1.1431177 -0.40080416 0.05666556 -0.02756788 0.19616824 0.53962916 0.23913784 -0.047745902 -0.81818694 0.48118094 -0.04396325 0.34474146 -0.5728293 -0.096401945 -0.31930807 -0.07216414 -1.1201158 -0.05219075 -0.45738998 -0.04408383 0.30707195 -0.13452959 -0.058382325 0.3929478 0.102576114 -0.43316758 -0.31354663 -0.3861488 -0.20135795 0.24558741 0.023077315 0.06319303 0.44293308 0.21352687 -0.25063774 0.50190157 -0.7545807 0.10402094 0.14359826 0.14087692 -0.1592162 -0.7663048 0.11571675 0.53396845 -0.6946041 0.596313 0.15388289 -0.19348018 0.27528664 0.20168084 -0.24622518 -0.6348672 0.06265471 0.57012784 -0.6731799 0.008901631 -0.002970502 -0.052660156 -0.68467563 -0.17887582 0.54295725 0.20997939 -0.5071262 0.33163837 -0.17539947 -0.5418248 0.2653412 -0.024304777 0.3089908 0.016117414 0.09467864 0.19349802 -0.60383064 -0.39816988 1.0127792 0.02593065 0.07683007 0.15747079 0.87431353 -0.55529 0.20211066
galaxy 0.5292355 -0.38988855 0.7685263 0.95207846 0.29688278 0.023764985 -0.45297801 -0.5940417 -0.092250474 -0.4044235 0.05533735 0.26905945 0.20106748 -0.14493845 -0.58680797 0.6675467 -0.24304308 -0.4928966 -0.28596103 -0.7050337 0.43779826 -0.11236036 0.0037052275 0.46079645 0.36153492 -0.11170279 -0.9252916 0.63084596 0.88290113 0.555576 0.5051308 -0.7867342 -0.054822803 0.21163194 -0.6553795 -0.37246898 0.16491075 0.8056687 -0.03407832 -0.10367641 0.4218107 0.08460079 -0.054293916 0.18697812 0.6518855 0.08990398 0.5845666 1.0462817 -0.52428114 -0.054836143 0.37503228 0.32974645 -0.5576244 -0.45664117 -0.01453552 0.37642264 -0.10875121 0.26006338 -0.25854865 -0.5007805 -0.59875095 0.37503815 -0.4264575 -0.19511054 -0.2131523 0.0010255266 -0.44202316 0.39340106 -0.22358283 0.025463415 0.014454571 0.6158869 -0.11982362 0.41663983 -0.44450757 0.588321 0.74111414 0.34061903 -0.012800908 -0.3767162 0.83046705 0.4835881 0.34846455 0.26887882 -0.069969796 -0.08046746 0.43007937 0.016710086 -0.40443695 -0.7787623 0.3132772 -0.4501413 0.13680121 1.0437244 0.59372586 -0.903953 0.24903412 0.118398935 -0.6341914 -0.60100716
black -0.0054239957 0.18093236 0.018273884 0.4736851 -0.021287996 -0.02880761 -0.27639717 -0.40862706 -0.15575556 -0.49442866 -0.08616807 -0.18905917 -0.20504893 0.023017218 -0.7943816 0.031003691 -0.34042072 -0.053024657 -0.17990434 -0.17490074 0.38877836 -0.24580278 -0.89260733 0.19602841 -0.03461518 0.14151357 -0.18478747 -0.2135709 0.7146718 0.028758489 -0.2064363 -0.5312411 -0.6673631 0.28083065 0.08983953 -0.08660031 -0.5862787 0.051456627 0.20462662 0.046595737 -0.088114165 -0.18125059 -0.10750674 0.04545418 0.067477494 0.40924805 -0.14115372 0.14827819 0.00099782 0.038525417 0.5123372 0.19608195 -0.20823039 0.16881905 0.051441748 0.6347767 0.11789013 0.48276138 -0.1699342 -0.15835042 -0.45601735 -0.3941746 -0.4304355 -0.08518252 0.68498415 0.026402399 0.30760518 0.22129409 -0.1418006 -0.28114134 -0.100972936 -0.26448023 -0.49179754 0.072649464 -0.13435674 0.014377342 0.32400525 -0.38044423 -0.4342846 -0.10583126 0.018426534 0.06616879 0.27764097 -0.05294159 0.6153201 -0.12390779 -0.09761099 0.024864223 0.07611762 -0.36773178 -0.32857066 -0.48709345 -0.56936973 0.32616073 0.3448536 0.11410874 0.35947853 0.30713713 0.105226114 -0.573379
lipstick -0.31841084 0.23506023 0.14321285 -0.2021761 0.5260297 -0.34739515 -0.6035006 -0.35880113 -0.4309564 -0.2747876 -0.31965798 0.1932687 0.0072732912 -0.80204034 0.3399076 0.52301663 -0.10711514 -0.12536836 0.36176226 -0.8145293 -0.11226963 0.8273843 0.19123612 0.7552386 0.041874174 -0.05633445 -0.2079439 0.33134446 0.48126304 -0.037723575 -0.498804 -0.42864394 -0.478049 0.22808735 0.019885752 -0.04219291 0.050129972 0.5079375 -1.027181 0.17131895 -0.25776368 -0.3764858 -0.75218886 0.21841222 0.086228155 0.13107719 -0.7679507 -0.5909661 -0.3905446 -0.3271163 0.66242456 0.37754747 -0.24117342 0.5985488 1.018815 0.59759855 0.07595363 -0.06764789 0.12659197 0.12474378 -0.07215432 -0.2514792 -0.14385746 -0.029203221 -0.364513 -0.08821321 -0.9397074 -0.35035616 -0.052849717 -1.0284299 -0.1504909 -0.0330839 0.5037152 1.071743 -0.6542096 -0.031353146 0.6075622 -0.022321554 0.14972575 0.018695848 0.3098384 0.15671846 0.37497753 0.7836126 -0.1825951 0.3182895 0.3459696 0.45673975 -0.34742212 0.4424841 -0.004566468 0.03833742 0.20368743 0.13243385 0.42011774 0.46999437 -0.12382528 0.49701023 -0.38363916 0.32787287
mini 0.40119734 0.25132966 0.11236453 0.22360134 0.09473015 -0.27342504 -0.4735717 -0.16841836 -0.16676608 -0.29225644 0.030650081 0.1291941 0.34273565 0.4461016 -0.12317444 -0.02972058 0.3718934 0.23005912 0.07936068 -0.20738395 0.13887477 0.035379674 -0.13909812 0.16148119 0.5117253 0.009728455 -0.090257995 0.27228403 0.6233981 -0.43583047 -0.8321073 -0.25701696 0.28364256 -0.324605 0.1337648 0.2348686 -0.11127612 0.20469724 -0.23622921 -0.14857312 -0.19200313 0.27026072 -0.32666296 0.4728963 -0.061527424 0.35432756 -0.24408092 -0.20276399 -0.32451966 0.13504556 0.5113999 -0.34354085 0.019558715 -0.07534268 0.2984565 -0.60547197 1.0296881 -0.01189296 -0.047123924 -0.19254564 0.48586068 -0.4444211 0.27650258 -0.4952268 0.30055454 0.13221696 -0.22421747 -0.03907604 0.5902388 -0.27295604 0.23318678 -0.05553316 0.53167856 0.37520787 -0.13542749 0.5966188 0.2252164 -0.25944063 0.2993341 0.26282892 -0.016401175 -0.2777505 0.5303862 0.08923218 0.010692876 -0.14360565 -0.20837542 -0.034750327 -0.65539765 -0.22371444 -0.09937488 -0.09206666 0.34432918 0.39954346 0.10929152 -0.21226327 0.5394206 0.06694628 0.48206082 0.24584666
tanpa 0.2154886 -0.03855519 -0.031110588 0.6744171 -0.27092952 -0.3278546 0.0592397 0.46800688 0.3491116 0.14557907 0.68287873 0.4127759 -0.11682532 -0.45091233 -0.030753367 0.061672892 -0.4008194 -0.6436324 -0.3076799 -0.33497697 -0.411218 -0.019836742 0.1680082 -0.12052929 0.11068344 -0.2009558 -0.011406221 0.25636744 0.12678106 -0.27681917 -0.23309425 -0.7826764 -0.7003428 -0.4642878 0.21755312 -0.3914026 0.03294397 0.029480686 -0.6184438 0.31268883 -0.64362025 -0.13220863 0.20479034 0.38615838 0.30916902 -0.75558746 -0.3899899 -0.41849145 -0.33253765 0.10634264 0.112880684 0.08383997 0.09441292 -0.064707346 0.38396567 -0.12892583 0.750465 -0.26926515 0.48291838 0.09211421 -0.265439 -0.3965809 0.13797617 -0.12815212 0.62467384 0.3672581 0.012760066 -0.921262 0.44654295 -0.15858485 -0.014354519 -0.33974844 -0.35050264 0.19445328 0.32737488 0.39430818 0.23014542 -0.12462724 -0.6686433 0.47729778 0.22178867 0.20861423 0.78097945 -0.2437895 0.15811299 0.34019038 -0.17516077 0.20802408 0.10289046 -0.18903035 0.6422688 0.052476816 -0.5460271 0.63384 0.17376556 -0.6996288 0.30743736 -0.24064632 0.19169545 -0.6581091
sleeve 0.35183445 -0.5576098 0.3451345 0.33147952 0.4170553 -0.5516597 -0.26040784 -0.36731908 0.3523918 -0.3117772 -0.21371515 -0.022123836 0.36446834 -0.41043362 -0.05693787 -0.44867107 -0.49079433 -0.32829693 0.541057 -0.035762094 -0.24192417 0.52930826 -0.54968023 0.16344011 0.46070933 -1.0201751 -0.6071745 -0.3096533 -0.093522966 0.039836314 -0.056051068 -0.025740914 -0.53954 -0.22597145 -0.0006691318 0.040917955 -0.22944184 0.3774984 0.2097445 0.2942895 -0.2715824 -0.03025242 -0.43419573 0.33155084 0.34130475 -0.37978274 -0.20260811 -0.27125666 -0.59144235 0.107532375 0.73917824 0.22967175 0.41145477 0.23972571 -0.6441506 -0.5840173 -0.2599069 0.25911602 0.19371057 0.024713209 0.25694576 -0.14384294 0.22642191 0.0037798493 0.3146357 -0.04234587 -0.05612583 -0.35036287 -0.5040138 -1.1171745 -0.107709914 0.46242929 -0.40665996 -0.35197246 0.5230532 0.36701992 -0.18584867 -0.39371046 -0.027911901 -0.18072848 0.20925047 -0.66829634 -0.08371576 0.03575296 -0.030100023 0.20063767 0.084697545 0.46188188 -0.24520929 -0.8121725 -0.8109454 -0.013996195 -0.98871297 0.7325524 0.64970773 -0.4408768 0.23749265 -0.09740437 -0.3088606 -0.3810658
oppo 0.8339331 0.06975264 -0.09011322 0.8380086 0.0513023 -0.3101537 -0.60308975 -0.582601 -0.22534858 -0.06631573 -0.04568371 0.341099 -0.6536728 -0.6315103 -0.30040872 0.22019707 0.15268786 -0.79331857 0.007683996 -0.23387857 0.25855812 -0.48504347 -1.1138006 0.47605723 0.2968924 0.06684636 -0.3724718 0.27174228 0.60030293 0.13297932 1.1227633 -0.5408899 0.73127496 0.5137834 -0.019109871 -0.5388637 -0.49665383 -0.39061 -1.016065 0.023479186 0.18128037 -0.3257108 -0.045968264 0.14260924 0.31152162 0.5490099 0.8040699 0.023653192 -0.18988772 -0.24990942 -0.0958925 -0.010215989 -0.027966421 -0.6931287 0.31641287 0.43291286 0.15714453 -0.21442579 -0.3430653 -0.7027737 -0.908154 0.50022995 -0.42330608 -0.122760005 -0.7171566 -0.5195124 -0.22798562 0.3353292 -0.21913934 -0.066167496 0.02513581 -0.3682395 0.31032282 0.9077664 0.16353798 0.5081541 -0.017601242 0.09703707 0.5497213 0.4691408 -0.022359626 -0.018045982 0.9179715 -0.24676341 -0.01648344 -0.07981174 0.1729436 0.0056941365 -0.74348325 -0.049012706 0.09442569 -0.065147385 -0.34810498 1.6678016 0.73496175 -0.20550697 -0.53503025 0.27464914 0.40902138 -1.2871951
wardah 0.36638758 0.31158045 0.6406673 -0.122792915 0.3231225 0.46341136 -0.180202 0.17847876 -0.24878204 0.09105016 0.36182344 -0.3999819 -0.1612372 -0.857769 0.32299444 0.1684986 -0.21817867 0.3484295 0.30780113 -0.0021168415 -0.8168526 -0.49915755 -0.06591238 0.52807504 0.25842068 -0.87811893 0.4731037 -0.15863208 0.25863612 0.309403 0.103252195 -0.072075225 -0.5292876 -0.5899856 -0.9328606 0.33723855 -0.3291678 -0.14855956 -0.4498764 1.0037276 -0.31428674 -0.7608842 0.048583403 0.82140136 0.6509307 -0.31631792 -0.6791671 -0.09027055 -0.8379912 0.089933865 0.2492009 0.3060771 0.28783423 -0.47315413 0.40496185 0.4658301 0.024396857 -0.24037561 0.1710909 0.8494732 -0.739584 -0.35271123 0.2781289 -0.30254504 0.20551805 -0.63689995 -0.81543976 -0.99009633 -0.02729018 0.05605366 -0.09562896 -0.30999827 0.30227128 -0.27594623 -0.5562091 0.045401946 -0.29030168 -0.5039889 0.33735585 0.7785747 0.12652075 1.0281855 0.7903587 0.061743572 0.5224528 -0.6096422 0.3183398 1.1472955 -0.41634348 -0.17846511 0.8556423 0.23420316 -0.54894495 1.319226 0.5488676 -0.096098915 -0.43643084 -0.40438214 -0.065343484 0.012345586
bedak -0.009259932 -0.75056195 -0.025237124 0.054340865 0.81832397 -0.3881633 0.1495483 -0.026698228 0.27426505 -0.07313132 0.17964247 0.36851886 0.10815865 0.07922195 0.35106042 0.87751174 0.46635273 -0.5865435 0.71717364 -0.316244 -0.41655913 0.09437811 -0.7229503 0.19511324 -0.32014525 0.1938781 0.6851603 0.5920219 0.13449088 -0.002178639 -0.095969915 -0.10198816 -0.61068285 0.27574947 -0.27704862 0.49172714 0.081959285 0.5910989 -0.047488477 -0.5330018 -0.55034876 -0.41490006 -0.047048144 0.371864 0.6995484 0.65832025 0.47112307 0.0521586 -0.052455656 -0.35582328 0.28993 0.29701787 0.2934846 -0.3969299 0.16355477 0.119534634 0.47037774 -0.28244495 -0.21818243 0.65119433 -0.05095411 0.48979247 0.06274816 -0.068670675 0.59169734 -0.1283916 -0.733553 -0.13222013 0.3922844 -0.7602429 -0.55756915 -0.20250818 -0.21096691 0.5847944 -0.09397369 -1.361504 -0.23172843 -0.2629872 0.17419313 0.123092614 -0.4913515 0.6846715 -0.15362814 -0.10667403 -0.46884102 -0.1763708 -0.21411516 -0.12388843 0.42747405 -0.61837876 0.09914096 -0.20808148 -0.3696528 0.8611503 -0.31959516 -0.23737016 0.21817952 -0.08577115 0.89668083 0.25146073
plus 0.5346151 0.2848422 0.6351965 0.059656244 -0.010551476 -0.74286354 -0.18601283 -0.6941107 -0.5956947 0.26970065 0.05915273 -0.22807562 0.241997 0.14966524 -0.110596076 0.17480887 0.18734063 -0.11995004 -0.058968373 -0.2606899 0.2743783 0.023569161 -1.1911793 0.017991444 0.14504692 -0.028349953 -0.16928682 0.4097234 0.28252697 -0.20239393 0.063902356 -0.34232488 -0.39117864 -0.2828449 -0.29101005 -0.3458692 -0.50793976 -0.2643756 -0.21458931 -0.030667447 -0.08276131 -0.26413652 -0.17191699 0.33111838 0.15631284 0.10154757 -0.4661479 0.6821718 0.038415417 0.21510957 -0.1378045 -0.08653627 0.23854004 -0.041377693 -0.21266775 0.54916763 0.108784325 -0.37004438 0.065756716 -0.22551112 -0.3276174 0.5202928 -0.8649106 -0.42178887 0.5163246 -0.24831802 0.006987309 0.37241852 0.16854075 -0.45127836 -0.46178874 -0.03694506 -0.5013543 -0.14435074 -0.6383361 0.67133194 0.44716665 -0.21384184 0.18521391 0.16057841 0.20017016 0.20043786 -0.36950108 -0.11117631 0.06944487 0.48177457 0.29678816 0.1928601 -0.49165162 -0.058966286 -0.4920105 -0.3170026 -0.49449477 0.50696284 0.10546242 -0.59129435 0.42718172 -0.13474117 -0.16964196 -0.22093247
dan 0.17998998 -0.5668246 0.43618426 0.9954732 0.09959746 -0.14924204 -0.28733867 0.17084801 -0.075178295 -0.27741462 0.3299856 0.062830575 0.4373498 -0.56390154 0.3162254 0.3585781 -0.50226974 -0.2319628 -0.16482833 -0.6431731 0.18660685 0.1346101 -0.043478053 0.25521538 -0.25923464 -0.0032790275 -0.11535066 0.14855693 -0.69812465 -0.058572367 -0.6101799 -0.050323024 -0.8039173 -0.59313804 0.31207556 0.18066177 -0.049601432 -0.11698222 -0.53703356 -0.0017272122 -0.62850946 0.110010475 -0.31239864 -0.15166579 0.16206929 -0.7333704 -0.58349854 -0.26022622 -0.21229324 -0.14680162 0.38702485 0.09994136 0.516891 -0.2914659 0.28014788 -0.19877432 -0.0065688426 -0.23642495 -0.080877334 -0.82267106 -0.3793436 0.73918766 -0.40262023 0.01503085 -0.32473338 -0.5115322 0.13310088 0.090170816 0.69778514 -0.43098307 0.3884349 0.27723637 0.26777387 -0.09391095 0.13908063 0.29123032 0.428378 0.031894505 -0.46270126 0.27782762 -0.43894735 -0.09534634 0.37443352 -0.46056807 0.06259024 -0.01131931 0.23566315 0.24749549 0.24477156 0.099628724 0.2064307 0.28004193 -0.274539 0.8141974 -0.018193189 -0.44717187 0.04054906 -0.32906243 0.07616402 -0.24810903
longgar 0.2161271 -0.6766211 -0.6572485 0.56282026 -0.055897646 -0.1916126 -0.71327364 -0.3461107 -0.021227162 -0.3106923 0.7471665 0.5192132 0.40280494 0.09638658 0.07974695 0.21777843 -0.21894842 -0.5368776 0.023263963 -0.24099658 0.061281033 -0.14971574 0.15016578 -0.60908544 0.17437738 -0.77434677 0.040197115 0.118261755 0.0050332784 -0.34040067 0.10069381 -0.77585274 -1.117184 -0.165509 0.3312154 -0.22977895 0.004061159 0.14656994 -0.6555245 0.12726928 -0.70366377 0.19719103 -0.16787699 -0.074403524 0.65404075 -0.94651634 0.29157194 0.3387889 -0.329104 -0.0981929 0.004929355 0.059154764 0.27880636 -0.32277495 -0.10441581 0.3276359 -0.055753283 -0.49829862 -0.054181706 -0.012719325 -0.09794412 -0.56204194 -0.3746922 -0.28528076 -0.09190714 -0.16639502 0.104072236 -0.83536685 0.80802244 -0.5564521 -0.21624535 0.109878555 -0.003859257 0.33724356 -0.16355634 0.5339083 0.0243096 -0.5159532 -1.220912 0.6223911 -0.021992205 -0.25610137 0.12639675 -0.31053567 -0.27969277 0.4582021 -0.07880538 0.6472972 0.7482566 -0.16512509 -0.09071782 0.06640824 0.15911415 0.85605985 0.34235838 -0.061420746 0.28350562 0.2845475 -0.05452919 0.043873604
liquid 0.14850527 -0.4559575 -0.7187824 0.11162075 -0.26842448 -0.4492572 -0.050216813 -0.50113565 -0.42700204 -0.8925457 -0.45885098 0.20858678 -0.09247744 -0.89495736 0.26181406 0.082620576 0.16448617 -0.4445594 0.119140685 -0.7296797 0.30476877 0.4209757 -1.0432643 0.06298182 0.28693372 -0.39166152 0.34769613 -0.15291847 0.13097484 0.46016675 -0.48634475 -0.2507779 -0.060807478 0.49615872 0.027081797 0.2598557 -0.23020507 0.6675884 0.01904835 0.062030405 0.033957377 -0.45461106 -0.2480103 0.38933098 -0.2265712 0.58628935 -0.54137284 -0.29692918 -0.30584666 0.5550066 1.0895653 0.55821073 -0.18697083 -0.22440678 1.1055315 0.16810934 0.13962571 0.0047638756 -0.47313604 0.07080227 0.47969437 -0.47004053 -0.36609936 -0.64778215 0.20452395 -0.54640466 -1.113827 -0.002126548 -0.2500196 -0.2906171 -0.46055907 -0.47630018 0.024678709 1.034233 -0.3377208 0.2692526 0.31914163 0.919686 0.09919949 0.43274534 -0.32697597 -0.735586 0.12634969 1.4013873 -0.48805758 -0.057524573 -0.06643108 0.53692997 0.044049777 0.2886477 0.20263094 0.30974683 -0.35825953 0.92119867 0.5284621 0.87910134 -0.21051477 0.1253916 0.32492912 0.3972939
panas 0.70339465 -0.30367228 -0.24034068 0.10740954 -0.3498077 -0.2573685 -0.60639524 0.021313125 0.47659218 -0.4556184 0.74219114 0.4883453 0.08084321 -0.051364698 0.023942793 0.53123164 -0.32348993 -0.6364969 0.053413495 -0.38134342 0.10070253 -0.23012324 -0.1611619 0.253213 -0.19925705 -0.27825955 0.05346113 -0.34420857 -0.14269386 -1.0712087 -0.5963256 -0.6375034 -1.0181087 -0.31868193 0.14789489 -0.45202273 0.45153397 1.0262696 -0.5537043 0.14502065 -0.45115036 0.13043456 0.2503721 -0.09745262 0.091915764 -0.3291096 -0.12813002 -0.2821159 0.0064581363 -0.04450103 0.40618497 0.20199083 -0.19015794 -0.8228286 0.9602074 -0.39627257 0.08600186 -0.3234491 0.5757452 0.3948425 -0.013957915 0.07526333 -0.022751492 -0.20159496 0.3006507 -0.40800408 0.170712 -0.42409968 0.7503351 -0.5576843 0.5207626 0.39325017 -0.07553602 0.27028027 0.10249824 0.45372716 -0.032818697 -0.45409715 -0.9680463 0.8179973 0.11827357 -0.14004578 -0.21450478 -0.39486256 -0.17549628 0.3676567 -0.6809059 0.5841319 0.3060694 -0.96299666 -0.5021907 0.33647633 0.20716803 1.5598104 0.52569777 -0.20443839 -0.1302043 -0.0028262301 -0.52466375 -0.30212566
top 0.23629956 -0.73157245 -0.21445297 0.29909334 0.18718699 -0.057376195 -0.66499573 -0.067794695 -0.22050849 -0.55818796 0.5649547 0.033130564 0.34087983 -0.7641754 0.19960058 -0.027288856 -0.15511292 -0.026276505 0.2520792 -0.014444389 -0.1872158 -0.12752768 -0.10963587 0.080394 -0.29413116 0.07179464 0.12424439 -0.43633434 -0.12280205 0.36196083 0.1479956 -0.35680175 -0.6918212 -0.035919353 0.37085092 -0.24341883 0.1648216 0.4753437 -0.4190878 0.58904034 0.23100092 -0.31137925 -0.29010206 0.064206794 0.43948585 -0.52124906 -0.2561899 0.21621251 0.30239525 0.35098776 -0.0027271758 0.093103856 0.076810576 -0.1689413 0.24197565 0.38485807 -0.0597733 0.2440415 0.16457212 0.16400903 -0.48470017 -0.36095402 -0.07151739 -0.4172807 0.39655095 -0.19114389 -0.9257539 -0.5746966 0.29401004 -0.26564103 0.04454133 0.019557184 0.2075837 -0.10709692 0.21750475 0.12991542 -0.3260882 -0.80729437 -0.15078802 0.24881317 -0.53374964 -0.37711337 0.077469885 0.09846581 0.02959935 0.579914 -0.3479045 -0.45198646 -0.24949297 -0.55309033 -0.871095 -0.57114434 -0.2903705 0.32896268 0.47973287 -0.49063322 0.048057072 0.06791341 -0.16928813 -0.5412885
foundation -0.8528244 0.20191701 0.7678372 -0.51047623 0.23700349 -0.23348944 -0.48271474 -0.5438781 0.15016249 -0.1704679 -0.3996077 0.13757114 0.5600389 -0.21680093 0.64136106 0.5022666 -0.36630505 -0.3495802 -0.13599052 -0.6858825 -0.23769861 0.13022909 -0.6103401 -0.18654406 -0.27653646 -0.60832685 -0.41888434 0.14902787 0.15793294 0.35482472 0.008983738 -0.14900927 -1.4038968 0.24378712 0.20334107 -0.26771852 -0.14809102 0.597244 0.1488133 -0.35205668 -0.40558586 -0.52066195 -0.48812672 0.24806651 0.08014024 -0.21399881 -0.15670434 0.27426112 -0.53285843 -0.23267338 0.45451128 0.4072828 0.20023982 -0.047491025 0.51653296 0.5547529 0.21267968 -0.75820774 -0.42288244 0.59772944 0.83650774 0.3889934 0.5076196 0.48103875 0.0076918174 0.4155345 -0.47493267 -0.1131579 -0.49651068 -0.38551548 -0.30309802 -0.24979267 0.3959517 1.338072 -0.032432258 -0.52745384 -0.06169763 -1.0012053 0.59241885 0.24657726 -0.011056786 0.42887482 -0.08883264 0.038966376 -0.3147444 0.2706544 0.15347378 -0.6714667 -0.20874454 0.22661294 -0.004811155 0.103611104 -0.02746122 0.5641795 0.42347303 -0.12127224 0.31589094 0.22421697 0.13165888 0.13650668
wa 0.06678148 -0.18458161 -0.25709355 -0.012027867 -0.48662856 -0.29720163 -0.46159923 -1.1566868 -0.016424036 -0.7346551 0.5059098 -0.23016454 0.16801977 -0.2977654 -0.9492248 0.7651262 0.1852747 -0.4786799 -0.023543125 -0.3355994 0.31497753 0.08110129 -0.85457104 0.5431197 0.2425458 -0.06845225 -0.5157575 0.39410648 0.01933583 0.21575855 0.55150926 -0.14248762 0.03588994 -0.73542035 -0.56523937 -0.46249375 -0.65555567 0.25074568 -0.16510072 0.38895214 0.109646074 -0.37902132 -0.3747021 1.1858386 -0.0078349365 -0.3467459 0.20076269 0.41883504 0.1788166 -0.5618069 0.21814668 -0.17261119 0.09380417 -0.032262344 0.5864821 0.54817337 0.5824552 0.11888748 -0.450172 -0.41577682 -0.25950813 0.5077803 0.08221508 0.4023234 0.2689596 -0.014900959 0.09761236 0.37772292 0.26971394 -0.15444478 0.06778991 -0.046470802 -0.1713488 0.33969888 0.21732745 0.21808743 0.3214794 -0.73704123 -0.059128493 0.24975054 0.22554317 -0.09147002 -0.4856767 0.074896984 0.6669424 -0.09884689 0.121823706 0.45125607 -0.13877873 -0.31765783 -0.19621697 -0.20366028 -0.33298486 0.7255375 0.15284532 -0.50762165 -0.13685404 0.37062404 0.023277007 -0.12538907
shoulder 0.35227725 -0.75294495 -0.41701466 0.2969309 -0.0664962 -0.9475648 -0.67315054 0.3021481 -0.4103086 0.38782492 0.59274447 0.4407484 0.10124558 0.23130864 -0.017754285 0.029079275 0.21318598 -0.5213223 0.38047975 -0.040960524 -0.23088202 -0.21485326 -0.21561775 0.23106284 0.8705666 -0.3310778 0.1480209 0.023777012 -0.045775224 -0.0043289918 -0.37375364 -0.84344816 -0.33091298 0.5437472 0.38633054 0.13217181 -0.090817384 0.57325053 -0.76302254 0.36939314 -0.18211085 0.27895007 -0.20798956 0.021355119 -0.0009012451 -0.41745442 -0.55853105 0.13907105 -0.0036674312 0.13598144 0.26362228 0.33660847 -0.00088060304 -0.45896554 -0.09730934 0.008172855 0.63740724 0.35329813 0.023642715 0.32093564 -0.46831328 0.17659208 -0.25629488 -0.7695837 0.34653187 -0.30794096 -0.08002261 -0.7803012 0.18732601 -0.54436696 -0.617741 -0.06567322 -0.025226338 -0.5027294 0.24200247 0.17925169 -0.28100994 -0.4535866 0.26462987 0.89391303 -0.27330408 -0.3093541 0.011607483 -0.26844707 0.44553906 0.59564877 -0.39065805 0.2638112 0.20858878 -0.026019346 -0.7934352 0.03494618 -0.2617558 0.82175845 0.3653051 -0.61652476 0.69979805 -0.03117192 -0.48869753 -0.29813385
blouse 0.25218812 -0.226938 -0.13500135 0.58508545 0.13685533 -0.41121596 -0.6969363 -0.49286464 0.3563451 -0.038016655 0.35023224 0.20016015 0.4896463 -0.31825408 0.018615263 0.025558209 -0.064020686 -0.421226 0.06572298 -0.40896487 0.20234725 0.16326281 -0.76056296 0.18597281 0.5194012 0.0072254087 0.2777939 -0.26360264 0.41141176 0.14872009 -0.4759453 0.03982893 0.5022857 -0.19893368 0.03413541 -0.1558661 0.35446274 0.3486271 -0.18739554 0.80829495 -0.06567457 -0.5358563 -0.1679319 0.12693961 0.39119875 -0.930164 0.25139323 -0.30543783 -0.09438852 0.13933803 0.19654666 0.33688647 0.11302816 0.42106786 -0.32848594 0.9299564 0.09031811 -0.0702281 -0.3069978 0.37954986 -0.25563833 -0.12975316 -0.009066527 -0.07506287 0.074745014 -0.23419105 -0.19938248 -0.85459125 -0.28861046 -0.8149198 -0.04880326 0.675918 -0.24475157 -0.54468805 0.40357742 0.17580013 -0.22671248 -0.6121903 -0.2390428 0.19549246 -0.45616513 0.10667849 -0.22945459 0.21028066 0.06444586 0.20556575 0.08064988 -0.05671217 0.12407347 -0.70171535 -0.83805287 -0.48217544 -0.38133624 0.078811914 0.6003545 -0.28092623 0.2196946 -0.171617 -0.59687936 -0.35886025
loose 0.31855965 -0.7162368 -0.103896216 0.0049463874 0.31762204 -0.22405568 -0.56786823 -0.716067 0.4935216 -0.21880382 0.75064564 0.25080925 0.26613137 -0.39970574 0.33283904 -0.016057558 -0.034979798 -0.2120848 0.4827423 0.35183713 -0.0390906 0.21298398 -0.4191403 0.2924942 0.5299493 -0.4622609 -0.41031715 0.26483253 -0.06417794 0.056887697 -0.097638056 0.14346433 -0.49257082 0.21093036 -0.108909406 0.21140064 -0.31014886 -0.18006147 0.43353963 -0.34420604 0.12602137 -0.27771968 -0.44335306 0.21584873 0.043186303 -0.22245836 0.10703091 -0.16839285 0.060871154 -0.14552388 0.3228664 0.19934337 0.30601826 -0.04113495 -0.81226534 0.03248903 -0.5183183 -0.006890721 -0.35036644 0.40296862 0.43221322 -0.40831894 0.14013886 -0.11410588 -0.11846744 -0.5686202 -0.17210452 -1.0002898 0.25089034 -1.5670251 -0.5712826 -0.27938098 -0.37924924 0.09706381 -0.2521449 -0.18907174 -0.14080788 -0.21437018 -0.49187064 0.47720495 -0.26026767 -0.6640177 0.47531238 -0.2653332 -0.25716853 0.46536186 -0.27215865 0.29209957 -0.32415387 -0.65875864 -0.72192895 -0.17295107 -0.57083076 0.855516 0.8445522 0.045094717 0.13198665 0.34994483 0.6293321 -0.31270447
off 0.17137341 -0.67426014 -0.11199399 0.21466257 -0.21447757 -1.3485148 -1.2252481 -0.2623574 -0.5595988 0.2034009 0.72149605 0.5188436 0.107288115 -0.32303825 -0.016537458 0.11300529 0.4651251 -0.16498902 0.22808361 -0.046329036 0.1459531 0.010352625 0.21258533 0.06571163 -0.07090517 -0.06823197 -0.15728305 0.21120575 -0.11295577 0.16410469 0.05463161 -0.6199856 -0.10383989 0.33692545 0.45645767 0.21150678 -0.026176304 0.21464352 -0.40337247 0.8316203 0.26749748 0.54901075 -0.13724057 0.38806608 -0.021556133 -0.22140408 -0.40142602 -0.51480013 -0.24023272 0.0043242523 0.56761986 -0.06718243 -0.0008565814 0.1495882 -0.16920531 -0.15923263 0.24310237 0.49996817 0.30215445 0.18795462 -0.19820927 0.35371158 0.10275614 -0.7351626 0.13675185 0.14870872 -0.13620846 -0.5170606 0.46888283 -0.06347251 -0.17359696 -0.1755943 -0.14060332 -0.31693617 -0.22994964 -0.23435721 -0.23401874 -1.0785058 -0.2322661 1.1164596 0.008942351 0.40233183 -0.21054862 -0.3395486 0.34034202 0.20657167 -0.45484495 0.3958192 0.10243861 -0.4563444 -0.6896135 0.36213362 -0.31401223 0.6516232 0.54437464 -0.39444047 -0.1141526 -0.24348941 -0.3832908 0.26359317
gaun -0.21705481 -0.4000572 -0.012773044 1.1082625 -0.55315965 -0.48302147 -0.5054665 -0.48207515 -0.027392732 -0.13624999 0.27775455 0.5552288 0.9947436 -0.78455055 0.5606073 0.7015647 0.46370423 -0.50379705 -0.74897134 -0.47776237 0.09848313 0.10847165 0.11135265 -0.14085479 0.6687867 -0.12589876 -0.24042863 -0.07773087 0.8901114 0.0856242 -0.31113765 -0.47801435 0.12009452 -0.31605828 -0.24292324 -0.30017817 0.41388267 0.054621913 -0.29182112 0.83849156 -0.47344622 0.20391333 -0.30311248 -0.03307726 0.09399228 -0.80856025 -0.08981539 -0.3030227 0.34145242 -0.18452123 0.11153029 0.23820357 0.25507647 -0.08842847 0.06278969 0.57893294 -0.5223305 0.34774333 0.30669913 -0.34930843 -0.7085629 0.09790659 -0.08690289 -0.7230665 -0.0098667815 -0.30425283 0.41898066 -0.7691558 0.7369813 -0.15252343 -0.5786758 0.54513156 0.5292837 -0.050839383 0.3253606 -0.041156612 1.068558 -0.17023164 0.23248465 0.17994918 -0.4598402 -0.562677 0.489951 0.03216866 -0.030081432 0.0018152737 -0.296027 0.15643568 -0.12104391 -0.14503835 0.1515882 -0.11815523 -0.536725 0.55151796 0.338422 -0.59427345 0.012595479 -0.03033674 -0.5728505 0.35801792
diskon 0.1537616 0.05872328 -0.2620808 0.3035807 -0.07613935 0.24494033 -0.14383177 -0.39613897 -0.10374231 -0.12359742 0.4104669 -0.06500492 0.26497212 0.01303367 -0.25260666 0.23720586 0.15816931 -0.047588665 0.038863625 -0.6294783 0.5445067 0.2366984 -0.29346156 0.5182247 0.31608477 0.0035031335 -0.13184421 0.27801448 0.15159899 -0.16521129 0.28049538 -0.19942771 -0.17870016 -0.09430049 0.15811355 0.20127012 -0.1262076 0.09596878 -0.14881039 0.17801571 -0.43321458 -0.567198 -0.14903443 0.17184515 0.019261569 0.056619488 0.2125556 0.3170827 -0.17813092 -0.02110128 0.18667018 0.2732018 -0.24753803 0.7243031 0.19251092 -0.09197665 0.17273764 0.25055376 0.023973905 0.4193536 -0.4309865 0.060178712 0.19738498 -0.08620368 -0.31559506 -0.36882284 0.037339434 0.055449296 -0.20263419 0.29625916 -0.07324935 -0.43478835 0.055539887 0.36060688 0.19537915 0.43990695 0.14944407 -0.033173937 -0.04466663 0.27868816 -0.0226623 -0.21004725 -0.058935743 -0.043634012 0.40665677 -0.21883088 0.35290948 -0.20621173 -0.059035793 -0.50025004 -0.02955641 0.051564265 -0.38414782 0.22881006 -0.05586578 -0.15391842 -0.16740967 -0.12973435 0.20904593 0.027586307
beli 0.41150874 -0.7149671 0.39403912 0.22273263 -0.21173143 -0.27396098 -0.852058 -0.9370547 -0.10498469 -0.4212337 0.5963243 -0.3629866 0.23962814 -0.277218 -0.66461134 0.7288049 0.2465031 -0.6613539 -0.1244868 -0.43715045 0.19123614 0.3201525 -0.29394928 0.5091716 0.017873788 -0.33064613 0.38076696 0.406382 0.5152563 -0.11192976 0.014504625 -0.3423312 -0.010815203 -0.16027471 -0.12357247 -0.10383973 -1.0358382 0.059908845 -0.063947275 0.10643124 0.2613268 -0.6367403 0.23966919 1.1414758 -0.13285406 -0.42553133 0.22188276 0.74783814 -0.64223045 -0.022178916 0.35601282 -0.25466606 -0.2795032 0.3514201 0.49046844 0.0837553 0.23594078 0.3116799 -0.45860472 -0.2059228 -0.36579195 0.5243906 0.14698666 0.21588795 0.051643584 -0.35391045 0.20642199 0.6757114 0.330454 -0.42403638 -0.22892708 -0.5648073 -0.23140134 0.3725538 0.04526423 0.74326503 0.047041766 0.089072496 -0.2216222 0.4615315 -0.02528376 0.3877641 -0.5625158 -0.15552555 0.46721005 0.080464266 0.6503587 0.87550956 -0.15670446 -0.08493634 0.02984038 -0.32534486 -0.5503778 0.48852763 -0.20645477 -0.13041809 -0.23852971 0.5307089 0.5034609 -0.21833296
pink 0.11516716 -0.16133673 -0.22984242 0.52360237 -0.22959703 0.32601917 -0.5140936 0.23564418 0.11080308 -0.008185699 -0.356252 0.08927122 -0.4605643 0.19722164 0.055963427 -0.101267695 -0.23022541 0.17474422 0.0037349034 -0.26432 0.15113164 0.3348742 -0.17328656 0.29512802 0.23407844 -0.4030092 0.16835202 0.15160191 0.50359553 0.12048147 -0.27981192 -0.5564219 -0.38985166 0.065936096 -0.13033585 -0.1350557 0.02080884 0.24314725 -0.39684826 0.09698262 -0.05747144 0.07237091 -0.4513848 -0.30502692 0.3019474 0.5016596 -0.31974775 -0.05138769 -0.39701325 0.111658975 0.4070922 0.105718486 0.3807447 0.052516125 0.6510501 0.306084 0.20280437 0.7726419 -0.12089967 0.5967587 -0.17198417 0.036513276 0.08984863 -0.18394351 -0.00865834 -0.6962514 -0.546275 -0.56084967 -0.39411426 -0.13307247 -0.046785325 0.23799688 0.25100145 0.0048829964 -0.51234347 -0.4817703 -0.10685389 -0.37282637 -0.6995911 0.25674167 0.050179273 -0.35490948 0.094999894 -0.34191903 0.23849091 -0.21460727 0.36012957 0.05398693 -0.004893909 0.017828187 -0.31061104 0.0034741573 -0.5501791 -0.05946008 0.5460792 0.7835824 0.35152754 -0.17549972 0.3751579 -0.202331
sale -0.14765666 0.058861747 -0.22552831 -0.18488601 0.18056075 -0.24086235 -0.19565181 -0.33932254 0.3736634 -0.33721915 0.35393333 0.005529963 -0.020948086 -0.050486494 -0.45275635 0.09171959 0.332662 -0.053530972 -0.0378291 -0.44311598 0.22508496 0.11706309 -0.18059288 0.016359644 0.46512663 -0.09564191 0.14433978 0.17050956 0.24362081 -0.16377817 0.28944373 -0.4732208 -0.1071927 -0.19848944 0.1292957 0.27063656 -0.16541691 0.29244056 -0.16397308 0.20700397 -0.20500864 -0.48684493 -0.08146709 0.16683458 -0.20615461 0.43506038 0.055700388 0.4073314 -0.21335724 0.11024882 0.094946556 0.14192298 -0.106282786 0.247371 0.0538549 0.1666808 0.2071252 0.22662757 0.29432803 0.595567 -0.21799494 0.060552742 0.42803058 -0.20011336 -0.19725256 -0.34329993 -0.25399634 0.29509345 -0.4256826 -0.02396216 -0.48991686 -0.49968338 -0.08697266 0.2767112 0.048998576 0.47497213 0.39600796 -0.318054 -0.21208611 0.6051959 0.55943894 -0.63773483 -0.066033036 0.3258514 0.18489933 -0.013212062 -0.085132055 0.17680073 -0.24867603 -0.26723653 -0.23330094 0.116575226 -0.11454615 0.17350404 0.076369606 -0.24632679 -0.15687753 -0.10044996 -0.18508276 -0.16551274
ml 0.22721195 -0.039987084 0.33968946 0.12972978 -0.020478792 -0.09103223 -0.16705064 -0.26452118 0.10714294 0.018079838 0.25157136 0.8993424 0.44677284 -0.756661 0.6001183 0.047904298 -0.4541956 0.23199037 -0.15618108 -0.31655753 -0.57321507 0.15015574 -0.6983203 0.37365735 0.27017123 -0.12313133 -0.1676743 -0.5016866 -0.11066871 0.459694 -0.31832042 -0.33564085 -0.6509826 0.08046947 -0.09749553 0.17934284 -0.36709636 0.09991871 -0.25747582 -0.83137435 -0.0966513 -0.36243826 -0.40077212 0.54333484 0.12589861 0.5714293 -0.30109757 0.13638341 -0.102105446 -0.45900542 -0.027836515 0.26352507 -0.7398052 -0.17744249 0.0627403 0.73300993 -0.0107973395 -0.24100085 -0.010567401 0.33603397 0.25326493 0.13455623 -0.3480307 0.15644531 -0.3132415 -0.43927935 -1.0703325 -0.09892222 0.03605838 -0.32786605 0.45461255 0.37936702 0.116011165 0.32201156 -0.09207312 0.54377866 0.012258728 -0.34582078 0.05696482 0.57078654 -0.39193493 -0.5382455 0.39065805 0.047024664 -0.07918352 -1.0526806 0.5602195 -0.16520247 0.068479724 0.78652287 0.46928594 0.05394459 0.22275417 0.543124 0.28170916 -0.31431228 -0.7197857 -0.055702463 -0.2667788 0.3510683
ready 0.11119335 -0.095796145 0.39910415 0.12460019 0.055538367 0.07791847 -0.2711574 -0.74640495 0.25017056 -0.46879467 0.4820698 -0.3256642 -0.10811621 0.25192657 -0.5858693 0.18489784 0.23655961 -0.4405159 -0.24943762 -0.33837274 -0.061207063 0.15250582 -0.5126982 0.24009258 0.32127 3.391284e-05 0.058270387 -0.5516896 -0.10900979 -0.17079148 0.3357647 -0.3380622 0.07003898 0.14077075 -0.086165145 0.026447197 0.0850007 0.33667982 -0.49829003 0.05372729 -0.3061266 -0.31165612 -0.2701957 0.17278168 -0.29457116 -0.15419778 -0.1375618 0.020464597 -0.3827509 -0.18826477 0.20421402 0.37911898 -0.109484166 0.07986257 0.0027148644 0.2205687 0.23950674 -0.30942327 -0.38561702 0.066760845 -0.4049529 0.11898559 0.33214578 0.0183653 0.1759728 -0.41194552 -0.09184596 0.28616646 0.05070184 -0.47883818 0.094256885 -0.7175399 -0.10972908 0.5482515 -0.123525664 0.28675967 0.286397 -0.17620537 -0.45637214 0.036420345 0.04678073 -0.2314716 0.096935235 0.14403702 0.14639613 0.17304333 0.1872582 0.3047965 -0.40309194 -0.55461025 -0.03972279 -0.041322198 -0.060084216 -0.03458486 -0.63262117 -0.21394064 -0.28569692 0.08948535 -0.2422557 -0.1404115
natural 0.12590316 0.09950078 0.25410187 -0.8545445 0.40176865 0.19474769 -0.6083828 -0.050161358 0.43964335 -0.25567958 0.110925816 0.4502827 -0.3192451 -0.23003541 -0.040855493 1.3852224 -0.13507065 -0.49196872 0.075730816 -0.7111179 -0.09764023 0.20797525 -0.18854384 -0.010665339 0.21880783 0.17466463 -0.039617658 -0.13982908 0.377722 -0.09101789 0.08083838 -0.030042112 -0.8674915 -0.077060245 -0.6818795 0.6848386 0.29595274 -0.25257123 0.052906137 -0.84308195 -0.17961086 0.089012794 -0.20290427 0.52369165 0.43778867 0.18639266 0.012460893 -0.19942325 -1.0216556 0.15169805 0.6247107 -0.29528102 0.1672437 -0.5633541 -0.29432097 0.116918266 0.6042832 0.111417614 -0.6507156 0.41404548 -0.033591345 0.23933285 -0.3618708 0.08978702 -0.38388664 -0.38215172 -0.45439586 -0.93496835 0.15081234 0.04173081 0.100731425 0.29060623 0.29947272 0.30558544 0.14021903 -0.088196956 0.19896536 -0.47214615 0.5309708 -0.19962038 -0.4189922 -0.15654132 0.063131854 0.18304563 0.031785775 -0.27862018 0.36128378 -0.313432 -0.2737617 0.18927707 0.1684618 0.36926863 -0.61519116 0.182924 0.63127357 -0.5364805 -0.17994593 -0.1985366 0.17167899 -0.07304826
gratis -0.02059333 -0.5317953 0.44364923 -0.19480138 -0.4769805 -0.46197504 -0.10752099 -0.7292265 -0.25608858 -0.6810182 0.18490261 -0.046591513 0.45905828 -0.081850916 -0.17432836 0.47046232 0.19137497 -0.52562374 0.028629288 -0.35546252 -0.11403798 -0.14181586 -0.4933658 0.06741956 0.35436013 -0.15626727 -0.39462775 0.5803918 -0.12785172 0.19169313 -0.1706009 -0.3438458 -0.07613935 -0.12761934 -0.23168749 -0.3499108 -0.6979596 -0.08868809 -0.3539434 0.31307656 -0.34360906 -0.73301923 -0.23249413 0.49508682 0.26679286 0.13838148 0.11487578 0.88593775 -0.13499512 0.038995218 -0.043266986 0.113129824 -0.30247536 0.6225761 0.37642914 0.1866273 0.5158419 0.1808494 -0.61027867 -0.46882388 -0.47257078 0.3706264 0.742204 -0.14185491 -0.0005365637 -0.36006346 0.21700214 0.12387041 0.012841152 -0.20503515 0.14531171 -0.33349377 -0.081302896 0.50762767 -0.08403709 0.46154988 0.25649878 -0.5528401 -0.16664809 0.4909544 0.81891567 0.3053031 -0.47048867 -0.35751548 0.4574911 -0.50739276 0.35763687 0.2914556 -0.24178529 -0.042996485 -0.2660355 -0.08467306 -0.07330049 0.83680147 -0.16857626 0.00964381 -0.25413024 0.4861888 0.5450803 -0.2566138
the -0.09861848 -0.2452827 0.46985963 0.055101458 -0.02942424 -0.32979175 -0.46666616 -0.08555167 -0.24771374 -0.71758324 -0.6136271 0.45000392 0.21607716 0.11670642 -0.06463774 0.07173188 -0.19350344 -0.78149664 0.17520207 -0.58019894 0.84150225 -0.58663476 0.055412013 0.28109527 0.8271813 -0.61391103 -0.19237019 0.69190025 0.23884337 0.14932188 -0.3287046 -0.07625203 0.06680477 0.10268048 -0.2718163 0.4107502 -0.28850982 -0.18802884 0.5166347 0.5295496 0.15388185 0.27580342 0.22701657 0.057239417 0.6056791 -0.11655169 -0.45132184 -0.2685647 -0.3058623 -0.17092289 0.45450357 -0.103125274 0.061990753 -0.04061623 0.058197644 0.17413616 -0.037385393 -0.28776625 0.078117006 -0.11691219 -0.51465464 -1.2028987 -0.03221322 0.23008652 0.13052522 -0.7337394 -0.87593925 -0.38745475 -0.28078535 -0.60492253 -0.2728165 -0.8947064 0.5540369 -0.31445152 0.08694354 -0.16316777 0.74564475 -1.1065198 -0.049228374 -0.10071693 -0.21920511 -0.4641409 0.32105908 -0.076625556 0.30776402 -0.032114852 0.39785662 0.034693982 0.18929064 0.2730185 -0.119297 0.17788653 -0.041104455 0.031211684 0.817246 -0.54023105 -0.21652876 -0.13124098 0.4275979 -0.13230312
white 0.6131466 0.08798594 0.0042847423 0.48890638 0.46511245 0.062006935 -0.13869709 -0.28115845 -0.090788834 -0.41190028 0.0487977 0.16437921 0.14196628 0.06546824 -0.115650386 -0.4085692 0.01287576 -0.056944303 -0.2928724 -0.08744161 -0.27706745 0.2341937 -0.7289593 0.016833324 -0.10611331 -0.13364293 -0.20872371 0.14742175 0.40690768 0.3149983 -0.19331978 -0.18589848 -0.5199066 0.22511768 -0.27756917 0.51289654 0.16270916 0.06392709 0.13423285 -0.11525876 -0.028951526 -0.34213006 -0.20309743 -0.09586827 0.25160182 -0.08139972 -0.066240534 -0.040076427 -0.23286742 0.33923617 0.167481 0.14563152 -0.28339794 -0.021985995 -0.029442227 0.017328946 -0.23025478 0.8116827 -0.47258455 -0.06758454 0.07154917 -0.19743928 -0.15407328 0.07537958 0.41001058 -0.2237263 0.47376475 -0.14471196 -0.41455847 -0.6174247 0.19604367 0.1837554 0.14385365 0.10517076 0.3452683 -0.5343703 -0.5021452 -0.5978825 -0.5458471 0.25106892 0.16478018 -0.24247001 -0.3515061 0.030224377 0.4493889 -0.19163544 -0.42083567 0.44762695 -0.37358925 0.11148539 -0.47092074 0.0064805103 -0.10449916 0.09972923 0.44551393 0.38506395 -0.09133622 -0.1132842 -0.31093025 -0.41849354
sifon 0.51234907 -0.469148 -0.14053114 0.958761 0.15231991 -0.32199815 -0.8118245 0.029629372 -0.2544538 -0.019704623 0.6586086 0.27948165 0.36605707 0.2578592 0.5052332 0.74019516 0.19947992 -0.76722276 -0.035831146 -0.18954208 -0.109356694 -0.28245375 0.013051028 -0.2619713 -0.40670735 -0.19643056 -0.020988502 -0.65834206 0.42238536 -0.7033448 0.54998076 -0.45995033 -0.15547611 -0.20400074 0.23129979 -0.38510612 -0.16155688 0.63925385 -0.58914983 0.27396914 -0.051430922 0.008553264 -0.1556288 -0.18700713 1.1470698 -0.7505532 -0.18544589 -0.92298484 -0.17981811 -0.35915533 0.38010344 0.7989559 0.041366495 -0.2194841 0.21339464 0.49769044 0.027912123 -0.3696963 0.3591325 0.2748437 0.05472171 0.43962044 -0.061423983 -0.69400376 0.43208572 0.02201443 0.0017026305 -0.9056836 0.1610396 -0.2728677 -0.39427897 0.17137687 -0.39474845 -0.08114066 0.91786635 0.37563705 0.36105227 -0.8621186 -0.7255268 0.35183015 -0.17048563 -0.48916757 0.4567155 -0.6319296 0.20562518 0.5171904 0.12389452 0.36232454 0.16083688 -0.2326286 0.15774935 0.055638175 -0.24544801 1.1611875 0.19210444 0.45846993 0.08281656 0.6808554 0.043061428 -0.2992655
termurah 0.22690898 -0.05425158 0.014917186 0.049366787 -0.10559307 -0.114982255 -0.19148344 -0.32456613 0.04714699 -0.1296408 0.20860574 -0.10656727 -0.056271724 -0.044076674 -0.3663992 -0.06758526 -0.029537397 -0.06248029 -0.05565598 -0.39313036 0.467696 0.014645647 -0.21877806 -0.055097718 0.22524205 0.2530828 -0.26086897 -0.21330129 -0.18188575 -0.1774703 -0.02794945 -0.4314357 0.03623971 -0.18917266 -0.21807197 0.15822613 0.093700685 0.3556227 -0.36061957 -0.07252177 -0.3345309 -0.40990958 -0.24793404 0.3016029 -0.012352349 0.052233357 0.07640993 0.23597755 -0.19175726 -0.19289106 0.3515766 0.11867071 -0.0440249 0.58025783 0.22020309 0.06032941 0.0118229315 0.17677987 0.024628215 0.13707367 -0.07249561 -0.17965075 0.34324068 -0.14510378 -0.11852156 -0.17949852 -0.081821315 0.034897756 -0.31456423 0.05473673 -0.28664538 -0.22220495 0.002217428 0.08790249 -0.057058144 0.05949243 0.16595209 -0.20740747 -0.09763101 0.34110397 -0.059488315 -0.077034235 0.120885365 0.14325707 0.1483848 0.27912456 0.25749502 0.07256459 -0.3209048 -0.26841706 0.030355992 -0.14441617 -0.2860499 0.19938977 0.06061558 -0.09592106 -0.124295965 -0.28387254 -0.15946855 0.15539674
slim 0.7705171 -0.31928048 -0.026560728 0.1443295 0.17987372 -0.41715926 -0.31635267 0.24176423 -0.43277815 0.014972173 0.36373702 -0.054899413 -0.115387864 -0.42995074 0.020335529 -0.11594913 -0.010432474 0.05564671 -0.32731605 -0.21362084 0.35300517 0.35579967 0.05495653 -0.23330668 0.35388094 0.026513383 0.06315718 -0.14145592 -0.04616321 -0.13838364 0.18675266 -0.24710484 -0.6567777 0.17360157 0.47583812 -0.17971708 0.11431573 0.67389977 -0.3028322 0.491493 -0.3827554 -0.015242868 -0.123727016 -0.018517649 -0.28665397 -0.29313228 -0.10559323 0.33977813 -0.70750654 0.038082212 0.16123304 0.27202022 0.013114141 0.0906888 -0.4682439 0.13588288 -0.1039289 0.3942144 0.1667281 -0.07154076 -0.18652387 -0.33976412 -0.33772653 -0.7174468 -0.14654401 -0.0017263102 -0.11551458 -0.8079205 0.49619249 -0.2602054 0.29754522 -0.1378312 0.19334224 0.22668457 -0.65053624 0.29718223 0.2861213 -0.12653075 -0.15035857 0.17657635 -0.32623625 -0.05777521 -0.032161284 -0.07476279 -0.36145973 0.62717086 0.3788142 0.4381629 0.39074785 -0.28401437 -0.5444708 -0.2655937 -0.17312668 0.6649202 0.57584465 -0.24023382 0.08821987 0.29299372 0.19805303 -0.11503991
etude 1.0170686 -0.4737489 -0.17159563 0.1680735 -0.36615855 -0.2840874 -0.46494967 0.2447146 0.11858155 -0.4801173 -0.2305157 0.83932483 0.31631264 -0.44472444 0.18446599 1.0061923 -0.43425864 -0.055117223 0.054267798 -0.9068256 -0.2027179 0.13447616 -0.25048387 0.06393181 0.3167513 0.22960365 -0.33855963 0.078081094 1.072313 0.47479942 0.04831815 0.10770365 0.023883354 -0.61748856 -0.20673314 -0.46513912 0.19988692 0.7163196 -0.5129999 0.12742943 0.1583861 -0.7558212 -0.847984 0.5296964 -0.03605251 0.24502642 -0.47145197 0.47836846 -0.5943651 0.4991458 0.6304222 0.20086807 0.82474685 0.15296878 -0.0032953017 1.2349967 -0.4057496 -0.16521163 -0.046289876 0.085382566 -0.25013548 -0.12366439 0.19395462 -0.38763303 0.23563023 -0.44806874 -0.0091071185 -0.41349143 -0.12673357 -0.8079689 0.28708586 -0.9819055 1.2420493 -0.3801735 0.11595344 0.30046037 -0.98607373 -0.4449678 -0.14576446 -0.20742981 0.28008747 -0.029832255 1.1692135 0.16975966 -0.34946635 -1.1423177 0.8178353 0.4933346 0.36799976 -0.087111376 -0.5478975 -0.050794348 0.008128475 1.0642171 -0.54019713 -0.1704788 0.67547774 -0.31141385 0.19175498 -0.34427294
fashion 0.4798569 -0.4540408 -0.33904833 0.8155692 0.50006765 -0.37262934 -0.7875801 -0.1749268 0.12920919 0.15152216 -0.1863364 0.36008507 0.03556838 -0.0023706732 -0.14512359 -0.28873426 0.72105235 -0.54941237 -0.39285687 -0.5101249 -0.5673973 -0.054948088 -0.47650224 -0.0394196 0.22668351 0.17315786 -0.00029164026 0.048638005 -0.21489742 -0.4612334 -0.27778983 -0.0021115628 -0.2846931 -0.05829294 0.057450034 0.13789901 -0.032813158 0.5401218 0.29240736 0.47190562 -0.29201135 -0.04710029 -0.39480487 0.18530768 0.08295116 -0.5844566 -0.17878689 0.03746072 -0.22867282 0.16647719 -0.15531684 -0.17760758 0.20071806 -0.0022265168 0.017831609 -0.046992734 -0.4592194 0.17861421 -0.6691537 0.5284884 -0.16217944 -0.5413744 0.07479247 -0.29471716 0.1379894 0.12037829 -0.6791687 -0.37934572 0.24638352 -0.46347606 -0.14183228 0.13315777 0.16109937 -0.51470804 0.04005996 0.14783405 0.090758525 -0.2941118 -0.117910914 0.36311612 -0.23651366 -0.2570185 0.33616683 0.07160255 -0.28265536 0.5581835 0.00092801655 0.09191333 -0.120768964 -0.7628743 -0.33701232 -0.58889043 -0.7682655 0.25443417 -0.0025138329 -0.61266905 -0.043773964 -0.05062749 -0.17737855 -0.49151546
big 0.3875704 -0.29183215 0.10141513 0.36263165 -0.06423918 -0.42109594 -0.49710488 -0.4081907 -0.24838963 -0.22192822 -0.04533534 -0.18069914 0.22388336 -0.005748931 -0.8030715 0.43152344 0.09781122 0.27877995 -0.055957243 -0.68768626 0.48923233 0.23970956 -0.2874005 -0.13440695 0.1803855 -0.48803282 -0.634561 0.009737847 0.32422125 -0.04416899 0.40148395 0.013711257 -0.21702275 0.1238421 0.3208326 0.26356545 -0.4569302 0.2878059 0.058396693 0.13746881 0.065862305 -0.43317458 -0.3306592 0.39394018 -0.0057706665 -0.10473432 -0.027496465 0.72843564 -0.0007665423 0.23928066 -0.3130402 0.76611716 -0.087739 0.22137192 0.5348635 -0.41123247 0.33866322 0.23722976 -0.5078169 -0.336051 -0.09434613 0.54206836 -0.15499912 0.2811154 0.22246182 -0.39659536 -0.20812052 -0.06818596 -0.018595088 -0.45721197 -0.27026233 -0.3217621 -0.185816 0.14226204 0.37935486 0.751259 -0.0008824575 -0.6575901 -0.04705276 0.5833772 0.012153728 -0.24750087 -0.18311222 -0.6890754 0.28933346 0.39743304 -0.09595561 0.012297932 -0.15249133 -0.6803989 -0.01976418 -0.30990407 -0.23907009 -0.10019406 -0.29486176 -0.24315752 -0.57271767 -0.21812186 0.048323747 0.070918106
gold -0.33559373 0.09661265 0.22724374 0.61256844 0.05836101 -0.6558189 -0.49721876 -0.3762331 -0.3999221 -0.14913864 0.082335725 0.010523725 -0.1486207 -0.37189445 -0.7426179 0.4789488 -0.05225525 0.10256951 -0.5669466 -0.98357546 -0.32245967 -0.010228554 -0.43409184 -0.1672905 -0.428834 -0.008187105 -0.21832284 0.24467033 0.78333545 -0.06172801 -0.08465249 -0.6866905 -0.23922215 -0.207183 -0.40915373 -0.49715275 -0.3318287 -0.07088336 0.3905013 -0.3208031 -0.4458864 -0.41005933 -0.11722923 0.25351292 0.08911822 0.19662999 0.017867424 0.5357487 0.40612563 0.018408788 0.6909801 0.16791153 -0.17919034 -0.104760535 0.08255311 0.6797249 0.19773932 0.43245843 -0.041483425 -0.58232176 -0.40309665 0.33121365 -0.332835 -0.3026843 0.46108532 -0.5506634 0.12980844 0.21270703 -0.037836514 -0.3662457 -0.13963382 -0.4799223 0.11133059 0.26904666 -0.40818232 0.46181452 -0.23179226 -0.047190268 -0.11699915 -0.22371143 -0.034186594 -0.35082957 -0.44433767 0.26135206 1.0580118 0.43240955 0.2700996 0.2777657 0.16991796 0.33192086 0.677738 -0.13254191 0.096161336 0.5414828 -0.11132888 -0.14686576 0.32591268 0.33188772 0.76327574 -0.6969327
hitam 0.37499472 0.122426 0.11451001 0.3631473 0.028170973 0.07408271 -0.124765016 0.00841043 -0.3950898 -0.4856903 -0.015679166 -0.08964478 -0.3137859 -0.16841996 -0.071756765 0.04076229 -0.08902456 0.024306744 -0.300297 -0.26847154 0.36707628 -0.092683285 -0.57211846 -0.16619247 -0.3179577 0.3904843 0.19110353 0.2355755 0.28945807 -0.12975965 0.16548535 -0.4399016 -0.5526419 0.030921154 0.23014508 -0.13921817 -0.5460029 0.13612814 -0.22581027 0.18776123 -0.5469493 -0.23510721 -0.10308302 -0.20107047 0.05302655 -0.054303974 -0.20357461 0.09168951 0.024255907 0.10551814 0.13967343 0.024821574 0.017334854 5.0784645e-05 0.2903465 0.29890674 0.119968385 0.62837017 -0.44951132 0.22716564 -0.31335813 0.048639197 -0.21496595 -0.25259963 0.04632133 -0.020886343 -0.055768393 -0.28974947 0.2453177 -0.18466231 -0.22156523 0.19506164 0.4266295 0.2644285 0.07818482 -0.274001 -0.37542972 -0.045223493 -0.9177637 -0.5061401 0.569361 -0.3155049 0.20416579 -0.21705408 -0.06568259 0.19713111 -0.28408924 -0.20569813 -0.21433985 -0.18605822 0.025521206 -0.14433469 -0.3979874 0.5857938 0.11544537 0.08460165 0.018065177 -0.3205586 0.027949125 -0.26922005
face -0.36411127 -0.47739908 0.09549959 0.5967524 0.0035029245 -0.50372994 0.008943515 -0.49847358 -0.15867239 0.24321397 0.13788536 0.89646286 -0.20087388 -0.04717511 -0.281724 0.34846315 -0.2522638 0.031769887 0.3859766 -0.66665894 -0.39768544 0.48021436 -0.5988275 0.7469915 -0.17504591 -0.51348907 0.13322355 0.3783099 0.68271923 0.08568036 -0.40424886 -0.11021668 0.09108179 0.15331565 0.2399272 0.14504288 0.1466032 -0.2901675 0.32539102 -0.7434253 -0.0290765 -0.0029578935 0.094008766 0.58293533 0.11830896 0.28221872 0.23808515 0.30812293 -0.63397825 0.12328891 1.0199296 0.2372009 0.039620582 -0.22618842 -0.5977948 0.077647015 -0.13929819 -0.35033855 -0.14589629 -0.31497797 0.25905952 0.19513191 0.62283725 0.30908597 0.06875258 0.30843866 -0.18965198 0.028470157 -0.5069589 0.0032978856 0.96846265 -0.25534984 0.3242751 -0.11297484 0.21069166 -0.58105093 -0.33902416 -0.58691907 0.006870936 0.72514987 0.2050332 -0.47403428 0.16260178 -0.0075265802 -0.5460637 0.845367 0.12339614 0.37021187 0.4954016 -0.023343338 0.6733841 0.4574034 0.21143353 0.54987156 0.13450088 -0.34531453 -0.23160374 0.058254078 -0.52620703 -0.6124432
balm 0.35690847 -0.12456416 -0.26049456 -0.43113244 0.33903635 0.11514239 -0.044925693 0.37321338 0.15061219 0.61364645 0.097694114 0.8327626 0.2101296 0.023659732 0.18654303 0.8553363 0.0042940127 -1.2328708 1.0618325 -0.8980646 -0.14407654 -0.28441212 -0.66687787 0.08974416 -0.7029493 -0.4982661 -0.118780464 -0.42452615 0.33267808 -0.067178756 -0.5054639 -0.6619126 0.3563482 -0.37554553 -0.090177305 0.5084271 -0.28149617 0.71152896 -0.5264293 -0.24952666 -0.27197695 -0.37340245 -0.9597633 0.14907202 0.60093564 1.0029352 -0.9707214 -0.014604358 -0.9366179 0.024369037 0.03399084 -0.5748306 -0.1291211 0.4199318 0.48183727 0.38264492 0.15860052 0.42850178 -0.16396317 -0.52551955 0.15368675 -0.62591773 -0.052828636 0.2743883 0.6392127 -0.9771001 -1.052565 -0.3030819 0.14078969 -0.35392302 -0.34336776 0.01621205 -0.7092817 0.8757592 0.4794489 -0.21053171 0.409086 0.038121015 0.26509765 0.36872765 0.11617271 -0.022900721 0.4798941 0.48959062 -0.008789796 0.42259365 0.25128818 -0.07572664 -0.2546521 0.46776444 0.16318838 0.3205145 -0.33668467 1.1064857 0.35631672 -0.6096046 -0.7767008 -0.22575481 0.9323239 0.29448143
kemeja 0.3496034 -0.68563807 0.58595 0.5398235 -0.27377778 -0.08598525 -0.43079987 -0.5708832 0.018939814 0.52912086 0.5487118 -0.35312712 0.42898256 -0.26200974 0.31348476 0.54645056 -0.22541448 -0.5226351 0.23140694 -0.26829726 -0.3373328 0.056635883 -0.64210105 -0.09934869 0.018407328 0.13759474 0.41397703 0.09758554 0.5260511 0.32597122 -0.32720572 -0.45486423 0.6499763 -0.4425328 0.68617 0.28747773 -0.06315377 0.64098334 0.048087504 0.590361 -0.6651741 -0.08915104 0.10441578 0.04101097 0.017475327 -0.4940584 0.1729139 0.17290556 0.1485608 -0.68187284 0.33463916 0.43059978 0.6252643 0.36245704 0.60480297 0.44950363 -0.34335563 0.4161265 -0.20378578 0.4634632 -0.09427219 -0.091563396 -0.2612425 -0.47676134 0.22418162 0.005008398 -0.4174832 -0.92057294 0.17143983 -0.8396916 -0.15577692 0.909866 -0.22394417 0.09154178 0.44879666 0.09150647 -0.32836193 -0.28684556 -0.20110606 0.32571897 0.2021212 -0.5483066 0.62396395 -0.79282683 -0.38500082 0.6850637 -0.09726141 0.26755434 0.59047794 0.024654375 -0.4295183 -0.15260953 -0.060947213 0.71366405 -0.13775593 -0.18087444 -0.0053061442 -0.6650188 -0.37806886 -0.1270547
xiaomi 0.06306827 -0.27760532 -0.002701773 0.09056976 -0.10262419 -0.34271792 -0.5000135 -0.34677747 -0.509014 -0.7848556 0.8459564 0.6662339 0.17252094 -0.83701116 -0.21852373 0.109108 0.70045644 0.64481056 -0.04202647 -0.19216724 0.0840939 -0.8323832 -0.964798 0.34236082 -0.064192384 -0.46822187 -0.15207553 0.56150687 0.2652541 0.015779309 0.063888736 -0.71612376 0.1230134 0.6561819 -0.283749 -0.032457583 -0.2945888 0.926138 0.21212281 -0.0812017 0.6549064 -0.3921435 0.21521598 0.019448938 0.15854864 -0.018362349 0.8848142 -0.295592 0.08379615 -0.38478824 0.11559435 -0.25601122 -0.62711954 -0.19615065 0.13612407 -0.0037921024 -0.42788753 -0.23644607 -0.52626896 -0.7957923 -0.968217 0.95930016 -0.21351357 -0.25136775 -0.07869968 -0.013597434 0.0090818135 0.86241955 0.03015137 -0.07284829 -0.29461974 -0.64991194 0.25675526 0.728131 0.03977455 0.43348953 -0.29516366 -0.6408962 0.08672213 -0.44034544 0.5970256 0.03334661 1.5921925 -0.20978947 0.55340594 0.21730255 0.6327993 -0.0011011737 0.13280438 -0.51674783 -0.10736218 -0.8326654 0.11563469 1.4780546 0.7652628 -0.8018994 0.02596939 0.09089173 0.33256793 -0.80260456
terlaris 0.19281878 -0.102624744 -0.0423107 0.18868783 0.0076272935 0.25080818 -0.18718117 -0.24195017 0.008673985 -0.101606734 0.2540056 -0.09785531 0.12951444 -0.042194083 -0.15659407 -0.049116533 -0.09210003 -0.006642664 0.16879854 -0.30764034 0.5024135 0.26671192 -0.26320377 -0.084447846 0.111857094 -0.035354365 -0.05571416 -0.21462224 -0.124508455 0.058463577 0.084079705 -0.4871935 -0.0024827265 0.017326787 -0.15600906 0.42038283 0.06819708 0.32068896 -0.3798569 -0.18624528 -0.493623 -0.4531713 -0.33267942 -0.049798653 0.11700425 0.12576996 0.19421867 0.13769758 -0.1673731 0.07284979 0.21050315 0.24969836 0.15952708 0.53036535 0.14118886 -0.050953686 0.1350706 0.06520992 0.07279471 0.38164273 -0.2789103 -0.3149931 0.23679164 -0.3178119 -0.42107654 -0.21381706 0.017268104 0.048418827 -0.24338527 0.15415947 0.026701597 -0.19397733 -0.059728455 0.29716894 0.09486609 0.20326607 0.013602152 -0.2683838 -0.192176 0.13730973 -0.21079788 -0.09080823 0.010938765 0.2641666 0.13195264 0.28257516 0.37785715 -0.2075796 -0.25289464 -0.061080553 0.20034376 -0.07124653 -0.3263885 0.27327052 0.015954927 -0.22343987 -0.058577728 -0.36741635 -0.016932316 0.17530411
baju 0.019908177 -0.29802528 0.29354692 0.36754227 -0.12525713 -0.39281806 -0.8164714 0.07128603 0.21760598 -0.37826288 0.18709236 0.15198582 0.45994198 -0.6426432 -0.09456834 -0.08866169 0.88667727 -0.84011614 0.44382405 -0.41740638 0.037091736 -0.074229665 -0.36147642 -0.26664883 0.33765608 -0.46924648 0.18421334 -0.50520706 0.72699285 0.24562295 -0.09229453 0.3497051 0.098554716 0.31310955 0.291359 0.2513836 0.14571866 0.07720144 -0.02237336 0.40438864 -0.57639915 -0.5132817 0.16327365 -0.2754818 -0.054138307 -0.25785762 -0.11683755 0.43258387 -0.36472678 0.28157875 0.19582282 0.30532956 0.364064 0.40907958 0.52987313 0.40015668 -0.45861247 0.4041649 0.1124479 0.072770916 -0.5632636 0.053629063 0.20942736 -0.1797287 0.21049164 -0.46788073 -0.109550215 -0.78517413 0.49414963 -0.5131035 -0.022580229 0.5801408 0.13510154 -0.35818803 0.6310345 0.15296784 -0.28700876 -0.018093286 -0.47149932 0.18880063 -0.21767423 0.2695528 0.49841055 -0.60032856 -0.14364089 0.5307289 -0.13842325 0.17587934 -0.35238734 -0.43539926 0.14953955 -0.40670013 -0.4004233 0.6921348 -0.3775547 0.44718835 -0.3453673 -0.74601406 -0.4459355 -0.5059202
